{"type":"LSTM","options":{"inputSize":47,"inputRange":47,"hiddenLayers":[20,20],"outputSize":47,"decayRate":0.999,"smoothEps":1e-8,"regc":0.000001,"clipval":5,"maxPredictionLength":100,"dataFormatter":{"indexTable":{"0":33,"1":37,"2":39,"4":41,"5":32,"6":35,"9":36,"T":0,"h":1,"i":2,"s":3," ":4,"e":5,"m":6,"a":7,"l":8,"t":9,"o":10,"n":11,"f":12,"y":13,"u":14,"r":15,"b":16,"g":17,"d":18,"v":19,"C":20,":":21,"F":22,"S":23,"E":24,"P":25,"B":26,"c":27,"k":28,"p":29,"D":30,"I":31,"-":34,"V":38,".":40,"[":42,"]":43,"stop-input":44,"start-output":45,"unrecognized":46},"characterTable":{"0":"T","1":"h","2":"i","3":"s","4":" ","5":"e","6":"m","7":"a","8":"l","9":"t","10":"o","11":"n","12":"f","13":"y","14":"u","15":"r","16":"b","17":"g","18":"d","19":"v","20":"C","21":":","22":"F","23":"S","24":"E","25":"P","26":"B","27":"c","28":"k","29":"p","30":"D","31":"I","32":"5","33":"0","34":"-","35":"6","36":"9","37":"1","38":"V","39":"2","40":".","41":"4","42":"[","43":"]","44":null,"45":null,"46":null},"values":[{"input":"This email is to notify you that an alarm has been triggered in your vCenter:","output":"Fehler"},{"input":"SEPPmail Backup  Device ID ff50-5609-0100 Version 12.0.14","output":"[1]"}],"characters":["T","h","i","s"," ","e","m","a","l","t","o","n","f","y","u","r","b","g","d","v","C",":","F","S","E","P","B","c","k","p","D","I","5","0","-","6","9","1","V","2",".","4","[","]","stop-input","start-output","unrecognized"],"specialIndexes":[44,45,46]}},"trainOpts":{"iterations":20000,"errorThresh":0.005,"log":false,"logPeriod":10,"learningRate":0.01,"callbackPeriod":10,"timeout":"Infinity"},"input":{"rows":48,"columns":47,"weights":[-1.0408958196640015,-0.15396305918693542,-0.7991249561309814,0.6471272706985474,-1.0473921298980713,-1.087592601776123,0.7199388742446899,-0.3125128448009491,0.37352579832077026,-0.3134567141532898,-0.08191310614347458,0.04576319083571434,-0.1579517424106598,0.0297434963285923,-0.2535952925682068,0.3479526937007904,0.19184984266757965,0.40407028794288635,0.12256766110658646,-0.11045534908771515,-0.5036519169807434,0.7781660556793213,0.26576104760169983,-0.12353488057851791,-0.16298840939998627,-0.18921689689159393,0.14390794932842255,0.6873360276222229,-0.567095935344696,0.09553179144859314,-0.7497243881225586,1.144850254058838,-0.6552310585975647,0.7551594972610474,0.16648459434509277,-0.23388279974460602,-0.8279798626899719,0.9930691123008728,-0.09834850579500198,0.58713299036026,-0.2613658010959625,0.7538966536521912,-0.2783535122871399,0.9447041153907776,0.8038139939308167,0.09990067780017853,-0.5994486808776855,-0.8726610541343689,2.0117268562316895,0.5313296914100647,0.3136938810348511,-0.5551674962043762,1.341598629951477,0.35274696350097656,-0.9782825112342834,0.1791369765996933,-0.10508434474468231,0.23280395567417145,1.0235660076141357,-0.4840744733810425,0.18683931231498718,-0.12469705939292908,0.8875454068183899,0.45408862829208374,-0.8431562185287476,1.0271815061569214,-0.8381901383399963,-1.3766143321990967,1.0705840587615967,-0.545967161655426,0.02956412173807621,-0.004752001725137234,-0.24577675759792328,-0.4088262915611267,-0.545548677444458,0.13517484068870544,-2.3808207511901855,-2.0828239917755127,-0.9525863528251648,-0.4423014223575592,-0.9133105278015137,-0.14363986253738403,-2.2453360557556152,0.9655763506889343,1.71306574344635,0.06427237391471863,-1.4239200353622437,0.731430172920227,1.1048336029052734,0.2268238067626953,0.761654794216156,-0.07450906932353973,-1.4193977117538452,0.12747715413570404,-0.5641764402389526,1.3358832597732544,1.8252849578857422,-0.9923918843269348,1.1202096939086914,0.3921176791191101,-2.3677420616149902,-0.48823535442352295,-0.6981813311576843,0.2949458360671997,0.2884786128997803,-0.22817783057689667,0.5140841007232666,-0.2668718993663788,0.15610846877098083,0.17571333050727844,-0.28942838311195374,-1.9421964883804321,-1.212388515472412,-1.0161694288253784,-0.3548668324947357,-0.2448573112487793,1.4096364974975586,1.537926197052002,2.062790632247925,-0.14078468084335327,-0.3587157130241394,-1.4816876649856567,-0.7555968761444092,2.7208034992218018,-0.3654083013534546,0.5585647821426392,-0.07270637899637222,1.5480389595031738,0.6636096835136414,0.4679086208343506,0.5243531465530396,-0.5307924747467041,1.1832062005996704,1.2577178478240967,-1.345767855644226,0.6980236768722534,-0.3790597915649414,-0.915608823299408,0.04644110053777695,-0.6220731735229492,0.2443970888853073,-0.2761121690273285,-2.3725993633270264,-0.6565878987312317,-0.40178704261779785,0.29998689889907837,-1.1061946153640747,-2.140866756439209,-0.2260209619998932,-0.09556269645690918,0.023139066994190216,-2.7269532680511475,2.845513105392456,-3.660271644592285,-1.1290490627288818,-0.7784075140953064,-0.07988271117210388,-1.0779184103012085,2.20896053314209,-0.2609565854072571,0.4461213946342468,-2.2300655841827393,0.8138676285743713,0.42566952109336853,-0.3657812178134918,0.9020739197731018,-0.6399195194244385,-0.8940631747245789,1.491243600845337,1.779288649559021,-0.07765937596559525,1.2200243473052979,0.7142202258110046,-2.422426700592041,0.7000910639762878,0.19369688630104065,0.3111543655395508,-0.7208417654037476,0.6342549920082092,-0.42376095056533813,0.8927407264709473,2.394014358520508,-0.2238880842924118,0.9110974073410034,0.12089309096336365,0.7965325713157654,-1.4961596727371216,-0.2650963366031647,0.5380356907844543,0.1717875599861145,1.4807591438293457,-0.9953310489654541,-0.07142475247383118,0.37124308943748474,-0.13686174154281616,-0.5778446197509766,-0.025711379945278168,0.012209970504045486,-0.2458336502313614,0.2747405767440796,-0.30789586901664734,-0.45515331625938416,-0.23799578845500946,0.15557311475276947,-0.5255335569381714,1.1318256855010986,-0.3367098867893219,0.02986050397157669,0.1166950985789299,-0.12283151596784592,1.6374242305755615,-0.5179233551025391,0.4863068461418152,-0.22847792506217957,-0.5431268811225891,-1.1278355121612549,0.44201600551605225,-0.08714423328638077,-0.5162544846534729,-1.1488420963287354,0.5880874395370483,-0.1556558609008789,0.877678632736206,-0.16921330988407135,1.6539280414581299,0.2625736594200134,0.4159986674785614,-0.6959713697433472,0.18498215079307556,0.7184973955154419,0.5583847165107727,0.20900225639343262,-0.36622604727745056,-0.6515079140663147,-0.18792878091335297,0.6832418441772461,0.48975253105163574,0.23580452799797058,0.515457808971405,0.42404699325561523,0.987110435962677,-0.17354433238506317,-0.9296701550483704,0.12440349161624908,0.7218595743179321,-0.42785465717315674,-0.9004573822021484,0.7671264410018921,-0.14271198213100433,-0.010756704956293106,-0.533585786819458,0.28614869713783264,-0.816881537437439,0.9916546940803528,-0.8537248373031616,0.9214038848876953,1.08543062210083,0.7619179487228394,-0.513044536113739,0.0928579568862915,1.1516989469528198,-0.8364998698234558,-0.16497012972831726,-0.31924599409103394,-1.0831022262573242,0.0015429543564096093,-1.2370606660842896,0.5256544351577759,-1.075290560722351,0.06836006045341492,-0.9588963389396667,-0.1794772893190384,0.3996017873287201,-0.39654746651649475,-1.4282011985778809,-0.34736526012420654,1.3052433729171753,0.09957585483789444,0.18493220210075378,-0.011028244160115719,-0.3578042984008789,0.608218252658844,-0.6826776266098022,0.5895823240280151,-0.08523640781641006,-0.11323831230401993,0.0586482472717762,0.03165455535054207,0.32697242498397827,-0.6164134740829468,0.27653148770332336,0.8003265857696533,0.4770139753818512,-0.764432430267334,1.2149269580841064,0.9474270343780518,1.1618928909301758,0.4436115026473999,0.25604432821273804,-1.2441939115524292,-0.08054641634225845,-0.6562404036521912,0.3733099699020386,1.2825407981872559,-0.3814239501953125,0.3055543601512909,-1.7859225273132324,-0.020289264619350433,-0.02577096037566662,-0.25168293714523315,-0.0631861463189125,0.10330871492624283,-0.9925917983055115,0.5198104381561279,0.4418928623199463,0.02621208317577839,-0.7158896923065186,0.07537885755300522,-0.7353491187095642,-0.2815391719341278,-0.3940066695213318,0.28371402621269226,-1.0633734464645386,0.42979273200035095,0.1308925896883011,-0.37662890553474426,-0.7633101940155029,1.3331087827682495,0.5914490818977356,1.0966613292694092,0.07300376147031784,1.4382003545761108,0.15998123586177826,0.09632091224193573,0.46956172585487366,0.45639410614967346,-0.2493361085653305,1.59294855594635,0.7995703816413879,1.333666443824768,0.509016752243042,0.9667065739631653,0.5710949897766113,0.4159812927246094,-0.42309626936912537,0.7690075039863586,0.05480874329805374,-0.4731708765029907,-0.4906584322452545,1.092336654663086,-1.1510066986083984,-0.05026497319340706,0.5548774003982544,0.5203587412834167,-0.14121970534324646,-1.0148321390151978,-0.1802247017621994,-0.6584923267364502,0.2291037142276764,-0.39704179763793945,-1.2847263813018799,0.7406756281852722,0.681937038898468,-1.024337649345398,0.1560002863407135,0.41319799423217773,-0.0909702479839325,-1.031413197517395,0.020317193120718002,0.08778723329305649,0.05498038977384567,-0.6613833904266357,-0.29808080196380615,-0.5628238320350647,0.877810001373291,-0.6545068621635437,-0.03659604862332344,-0.6978990435600281,0.6972305774688721,-0.6359100341796875,0.966583251953125,-0.16619060933589935,-1.1129651069641113,0.5865654945373535,0.03681369125843048,-0.7500112652778625,0.498261034488678,0.6768437027931213,-0.1597953736782074,-1.3307021856307983,-1.5086772441864014,0.08262727409601212,-0.9903609752655029,0.7751763463020325,0.004181158263236284,-0.14631927013397217,-0.4459819793701172,-0.4769521951675415,0.5049480199813843,0.24895820021629333,1.0304179191589355,-0.40944966673851013,0.09710303694009781,-0.0535273402929306,0.030631883069872856,0.8140587210655212,0.9674952626228333,0.3730981945991516,0.12929067015647888,-0.24548767507076263,0.5027188062667847,-1.1196807622909546,0.9385913014411926,-0.7507948279380798,0.004489225801080465,-0.08562175184488297,0.138364776968956,0.2608768045902252,1.2155286073684692,-0.7947006225585938,-0.2942083179950714,-0.8503783345222473,0.43098366260528564,-0.24779532849788666,-0.7652906179428101,-2.142089605331421,-0.219951331615448,0.6458019614219666,1.0836113691329956,-1.1183500289916992,-0.6905129551887512,-0.22126038372516632,0.807449221611023,-1.6867666244506836,-0.5609666109085083,-0.6816373467445374,-0.03582261502742767,0.16476520895957947,0.27803778648376465,0.16396568715572357,0.3263012170791626,0.6004419922828674,-1.215535044670105,-0.23149460554122925,1.8660743236541748,0.2474789321422577,-0.4037587344646454,-0.4519689977169037,1.3462138175964355,-0.54361891746521,0.2689025402069092,1.3511427640914917,-0.41856998205184937,0.6046081781387329,-0.22583861649036407,-1.0977553129196167,-0.3276628255844116,0.26885417103767395,-0.2682246267795563,-1.3175086975097656,0.03563827648758888,0.0942903608083725,-0.10876135528087616,-0.25892654061317444,0.4092223644256592,0.10744942724704742,-0.1979118138551712,1.4434716701507568,-1.3640289306640625,0.9416524767875671,-2.9094133377075195,-0.7910694479942322,-0.5888139605522156,-2.446397066116333,1.81710684299469,0.7094653844833374,1.0920063257217407,-0.3221498429775238,-3.7862794399261475,-0.28975769877433777,-1.0618011951446533,0.3656856119632721,-1.2065138816833496,-3.931934118270874,-1.7652426958084106,-0.4033988416194916,-3.408569812774658,0.8598043918609619,-1.2023193836212158,0.9326436519622803,-0.936420202255249,1.1919190883636475,-1.4010487794876099,-0.20348955690860748,3.042001962661743,1.1708177328109741,0.45306164026260376,0.5089100003242493,1.0143121480941772,-0.24656622111797333,-2.3298234939575195,0.3012232482433319,-0.6838198304176331,-1.7654279470443726,2.790034294128418,0.687963604927063,-0.8730077743530273,-0.5288103222846985,2.6988918781280518,0.5903679132461548,-0.3544205129146576,1.5835281610488892,3.5717368125915527,-1.2012178897857666,-0.31574547290802,-3.3716747760772705,1.401963472366333,0.05711045488715172,-1.311369776725769,0.8032329082489014,-0.7875192761421204,0.7501561045646667,-0.3638559579849243,-0.2619510293006897,0.9788544774055481,1.716632604598999,0.4594525396823883,0.10157380253076553,0.8843395709991455,-1.286857008934021,0.43206024169921875,0.5866391062736511,0.6737590432167053,0.9769970178604126,0.986230731010437,-1.0771416425704956,0.23405495285987854,-1.6192137002944946,-0.5339773893356323,-0.5223252773284912,0.9669682383537292,-1.5637503862380981,-0.9239697456359863,-0.04040488973259926,0.17492146790027618,2.031468391418457,1.3155205249786377,0.5565201044082642,-0.7632238268852234,-0.4141654372215271,-0.01509783323854208,-1.2332319021224976,0.4583419859409332,-0.2129240781068802,0.006391128525137901,-1.2803618907928467,0.13396164774894714,0.9118403196334839,-0.638151228427887,-0.7597776055335999,-1.3846951723098755,0.34472382068634033,-0.315395712852478,-0.29801610112190247,1.345041275024414,-0.575890839099884,-1.019364833831787,1.4049550294876099,-0.09656287729740143,-0.9981452226638794,-0.050992388278245926,-0.7443962097167969,-0.13136249780654907,-0.4649909436702728,-1.9746646881103516,0.15584483742713928,-1.386792778968811,-0.21250313520431519,0.17315848171710968,-0.7306254506111145,0.009682384319603443,1.3711289167404175,0.11140893399715424,0.030559584498405457,-0.292863667011261,-0.24444645643234253,-0.6024567484855652,-1.6368194818496704,0.0011375963222235441,-0.2788133919239044,-0.4048199951648712,1.3402981758117676,0.788284957408905,-1.2086983919143677,-0.21161195635795593,0.13383693993091583,-0.527402937412262,-1.708094835281372,0.10265936702489853,-1.3201792240142822,-0.6739569306373596,0.2439919114112854,0.5489216446876526,0.2151656299829483,-0.7598762512207031,0.8342985510826111,-0.3902653455734253,0.41826704144477844,0.9905866980552673,-0.40141794085502625,0.5625991821289062,-1.090950846672058,-0.3118344843387604,-0.41494646668434143,1.9864137172698975,-1.26160728931427,-0.10298575460910797,0.06639159470796585,-0.07668084651231766,-0.21121545135974884,0.40886518359184265,-0.8862539529800415,-0.812828004360199,-3.331724166870117,0.1486770212650299,0.12223675101995468,-0.5396999716758728,1.045711636543274,1.8195075988769531,0.09585130214691162,1.0435001850128174,1.2715764045715332,-0.6565638780593872,-1.5575072765350342,-0.9868975877761841,-0.8361673355102539,-0.8603271245956421,1.3838008642196655,0.1108124852180481,-0.27187812328338623,-0.9194459319114685,-0.4969470500946045,0.1671770215034485,-0.6425434947013855,0.3858341574668884,-0.2600017189979553,0.3389398157596588,0.5739752054214478,0.11703368276357651,-0.1154743954539299,0.1252007931470871,-2.506405830383301,0.3168051540851593,-1.1309870481491089,1.2659589052200317,-0.07949279248714447,1.119093418121338,-1.216759204864502,-0.5322703123092651,-0.40888428688049316,-1.8756616115570068,-0.9986369013786316,-0.4852979779243469,-0.036698561161756516,1.5795252323150635,-0.29246196150779724,0.9283813238143921,1.0975425243377686,-0.4346908926963806,-0.37914538383483887,0.5233431458473206,0.6525939106941223,0.9026458859443665,-1.143753170967102,0.6706998348236084,-0.6837891340255737,0.10564935207366943,0.3738511800765991,1.4488316774368286,-0.26807868480682373,0.3093646168708801,0.3562551736831665,-1.380472183227539,-0.7132536768913269,0.2812082767486572,1.1796132326126099,-1.2556089162826538,0.8796594738960266,-0.582377552986145,0.07194146513938904,-0.4523506462574005,-0.5464686751365662,-0.8823041319847107,0.2987630367279053,-1.305401086807251,-0.13639965653419495,-1.1322976350784302,-0.2200024574995041,-1.3156543970108032,-0.3700021803379059,-0.45527201890945435,-1.4977092742919922,-0.11201431602239609,2.761003017425537,-0.11457144469022751,2.499007225036621,-0.5500298142433167,-0.6187158226966858,-1.4862072467803955,-0.26652711629867554,1.2399436235427856,0.09872141480445862,-0.21456816792488098,0.6153815388679504,1.6427053213119507,-0.8752363920211792,-0.4905621111392975,-0.5939406156539917,-0.5586632490158081,0.6785928606987,-0.1008470430970192,0.4671853184700012,-0.016212034970521927,-0.35340777039527893,0.912600040435791,0.5321927070617676,0.9727433323860168,1.6186916828155518,-1.1865944862365723,-0.4320968687534332,0.055540747940540314,-1.0072190761566162,-0.09172322601079941,1.0683430433273315,-0.6390639543533325,1.183119535446167,-0.6240170001983643,-0.9438170790672302,-0.8148572444915771,-0.09619849175214767,0.5353215336799622,-0.3203029930591583,1.3160690069198608,-0.8188722133636475,-0.3173189163208008,-0.2964017689228058,0.5754925012588501,0.3584668040275574,0.06285292655229568,1.3172091245651245,-0.3585740625858307,0.07474690675735474,0.5534560680389404,0.23262524604797363,-1.9770188331604004,-2.0556447505950928,0.62272047996521,1.0609601736068726,1.226531982421875,-1.2343995571136475,-0.36259740591049194,1.8551162481307983,-0.5089735388755798,-2.4209513664245605,1.9136857986450195,0.11219576001167297,0.11908891797065735,0.5314944386482239,-0.7411169409751892,-2.313049077987671,-1.0096570253372192,0.7913167476654053,1.0579255819320679,0.9878285527229309,1.3872220516204834,0.5668087005615234,-1.8051437139511108,1.4202293157577515,-0.06878872960805893,0.5646048188209534,-0.8188406825065613,-0.38983339071273804,-0.3763186037540436,-0.3082823157310486,0.669779360294342,-0.9535157680511475,0.047498662024736404,0.37900081276893616,-1.383628487586975,0.5574962496757507,-0.3102928698062897,0.8420999646186829,0.3505871295928955,1.929015874862671,0.9106312394142151,-1.0464143753051758,-0.8994956016540527,0.2780938744544983,0.022891657426953316,-2.2703020572662354,0.17115484178066254,-2.3286828994750977,0.040580276399850845,0.7442187666893005,1.378232479095459,1.9776169061660767,0.2809104025363922,2.239450216293335,0.2699832320213318,0.7058151960372925,-0.23093107342720032,0.5096240639686584,1.5606389045715332,0.8135174512863159,0.6187065243721008,0.6319653987884521,-1.792380928993225,1.0119316577911377,-2.315830945968628,1.212218999862671,1.3663171529769897,2.4807021617889404,0.0277703870087862,-1.655415654182434,-0.8861026763916016,-0.39641010761260986,0.4171937108039856,-2.506364583969116,1.4423822164535522,-2.0010125637054443,-2.466468572616577,1.278692364692688,-0.8775148987770081,-0.2851425111293793,0.8033397197723389,-0.38484612107276917,-0.38975486159324646,-0.47959282994270325,-1.3812358379364014,-2.3388922214508057,-0.2972736656665802,0.31300488114356995,-0.28458666801452637,1.449291706085205,3.4913759231567383,2.3280632495880127,2.4805843830108643,-1.1551426649093628,-0.8426712155342102,-2.4203097820281982,1.138678789138794,-0.7816603779792786,-0.48579904437065125,1.9563989639282227,-0.8192768096923828,-0.7661051154136658,0.8571364879608154,-0.28160035610198975,0.10136759281158447,-1.7431989908218384,-1.735451102256775,-0.13042326271533966,-1.926391363143921,1.3531699180603027,0.24766293168067932,1.3335012197494507,0.3553088903427124,-2.2129886150360107,0.6758885979652405,-0.4268603026866913,0.9980450868606567,-0.023517441004514694,0.5622305274009705,-1.2093957662582397,-0.4166271388530731,0.8398075699806213,2.1732473373413086,1.1112537384033203,-1.0491080284118652,1.0269984006881714,1.1315196752548218,0.30028036236763,0.9391757249832153,-4.326717376708984,0.733455240726471,0.24135485291481018,0.7032366991043091,-0.13845030963420868,1.124497652053833,-1.0737106800079346,0.41380685567855835,-1.8962996006011963,-1.5863091945648193,0.2998112738132477,-2.5647637844085693,-1.2238975763320923,-1.3951354026794434,0.6830729842185974,-0.6571043729782104,1.1536866426467896,1.7521058320999146,1.5187405347824097,1.8040707111358643,-1.266173005104065,0.9945151805877686,0.6868456602096558,0.024399610236287117,0.6988835334777832,1.9437137842178345,0.6534309983253479,-0.7117266654968262,-1.2479844093322754,1.701996088027954,-0.6504596471786499,-2.276958465576172,2.911555051803589,0.6562575697898865,-3.2564895153045654,-0.8533813953399658,0.8100182414054871,1.064583420753479,0.5465312004089355,2.1838772296905518,2.564732789993286,0.2858515977859497,-1.4959702491760254,0.27463409304618835,-0.9398482441902161,0.8775028586387634,0.45079559087753296,-0.9814420342445374,-1.413953185081482,1.0498102903366089,1.8694130182266235,-0.7476226091384888,-0.11220846325159073,-1.7077560424804688,3.1939425468444824,0.01563039794564247,-1.1131930351257324,-0.48688703775405884,-1.2852237224578857,-1.409856915473938,-0.4788174331188202,-0.314454585313797,-1.3305357694625854,0.7776040434837341,1.1149406433105469,0.992569088935852,1.0373826026916504,-0.3506605625152588,-0.5662649273872375,1.1596019268035889,0.26978716254234314,0.1571582555770874,-0.31906020641326904,0.6946187019348145,-0.6923736929893494,-0.33028367161750793,0.6521556973457336,-0.013971809297800064,-0.7717978954315186,0.11849763244390488,-0.050286270678043365,-1.6648393869400024,-1.0788086652755737,1.2613093852996826,0.5718666911125183,-0.4628320336341858,0.8742426633834839,-0.16088852286338806,0.9574881792068481,0.1986411213874817,-0.301089882850647,-0.40731051564216614,0.6707736849784851,-0.8617894649505615,-1.5116909742355347,-1.106911063194275,1.126819133758545,-0.6352027058601379,-0.7343010306358337,0.0322994738817215,0.2657947838306427,0.34025779366493225,1.8686877489089966,-0.18490353226661682,-1.355636715888977,-0.2705250084400177,0.4612845182418823,1.7312787771224976,-1.078819751739502,-0.0685267299413681,0.7010802030563354,1.1254363059997559,1.0255182981491089,1.2980849742889404,0.5325127243995667,-0.7203425765037537,0.1621270626783371,1.3093273639678955,1.1402995586395264,0.2777227461338043,1.4511165618896484,-0.28615161776542664,0.006514261476695538,1.142324686050415,0.29557058215141296,-0.8036984801292419,1.866889476776123,-0.39291268587112427,-2.223712682723999,-0.12160788476467133,0.27444830536842346,-2.4771924018859863,-1.2555104494094849,0.8785613179206848,0.1919156163930893,0.018563583493232727,0.380194753408432,1.2367713451385498,-0.6838818192481995,-0.12663480639457703,-0.17162063717842102,-0.3869881331920624,-0.994343101978302,-0.6721963882446289,0.08539551496505737,-1.0129541158676147,-0.537596583366394,1.376286506652832,0.02392963506281376,0.8967658281326294,-0.30268704891204834,-0.6439526081085205,-0.670269787311554,-1.0569523572921753,1.1863501071929932,-0.9282076954841614,1.137101411819458,0.030854197219014168,-0.20884661376476288,1.344369888305664,1.316198468208313,0.019335484132170677,-0.3698945641517639,0.2629967927932739,1.790367603302002,1.4920170307159424,1.202020525932312,1.6892930269241333,1.0126302242279053,1.9915388822555542,-0.5014501810073853,0.2824297547340393,1.4733405113220215,-0.34703904390335083,-3.337128162384033,-1.4544199705123901,1.2719159126281738,-0.8495622277259827,1.8285351991653442,-0.5972897410392761,-0.5561671257019043,0.7733651399612427,-0.8079186677932739,-0.3524899482727051,0.2840177118778229,-1.6666381359100342,0.05084320530295372,-0.6441564559936523,2.1404495239257812,-1.1111211776733398,-0.8221724033355713,0.8160242438316345,0.4277575612068176,-2.2673237323760986,0.6339136958122253,0.8490644693374634,1.0371142625808716,-0.09307824075222015,0.6108444333076477,1.677224040031433,-1.9593467712402344,0.9659940600395203,0.08632729202508926,-0.8872138261795044,1.338882327079773,-0.17324914038181305,-0.3067808747291565,-1.5864921808242798,-1.3418711423873901,3.337898015975952,-0.5390721559524536,-0.6502386331558228,0.12732164561748505,1.8798259496688843,-0.11167297512292862,-1.1663309335708618,-1.2086926698684692,0.07472541183233261,-2.64778733253479,0.351832777261734,1.4899176359176636,1.4324482679367065,0.5073424577713013,-1.9603956937789917,-1.311228632926941,2.5783824920654297,2.3064191341400146,1.000153660774231,-0.13715313374996185,0.0968746468424797,-1.631052017211914,-0.09200181812047958,0.7186789512634277,-0.012974733486771584,0.7161688208580017,0.43971601128578186,1.225048542022705,-0.13675589859485626,0.18484798073768616,-0.3976621925830841,0.09286490082740784,-0.05461440607905388,2.5024149417877197,0.6815209984779358,-0.4760226011276245,-0.6835368275642395,-1.4547643661499023,-0.715618908405304,1.9177042245864868,-1.279602289199829,0.44428813457489014,0.783513605594635,0.46297135949134827,0.4509703516960144,0.5927941799163818,-1.0319315195083618,0.6206929087638855,-0.8399996161460876,0.6075713634490967,0.4065937101840973,1.000704050064087,1.0469043254852295,1.5758777856826782,0.08614958077669144,0.4984366297721863,-0.47298893332481384,-0.0158628448843956,-0.9493837952613831,-0.9290056228637695,-0.7134276032447815,0.11718643456697464,0.0701506957411766,0.693075954914093,0.5503613948822021,0.1965285986661911,0.9593877792358398,-0.10190869867801666,-0.3236280679702759,-0.07664331048727036,-0.7204171419143677,0.2984893321990967,-0.4042327404022217,0.9246138334274292,-1.0157744884490967,-0.17631661891937256,0.9640689492225647,-0.4050652086734772,-1.302062749862671,1.0916928052902222,0.4361537992954254,-0.07055974006652832,-0.25342944264411926,0.017081579193472862,0.2695310115814209,0.22325824201107025,0.2500735819339752,-0.501265287399292,-0.1773146539926529,-0.46158766746520996,-1.4599381685256958,0.23940250277519226,-0.06106976047158241,-0.811883270740509,0.838898241519928,-0.7233271598815918,0.2578848898410797,0.3915972411632538,0.3260154128074646,0.3792377710342407,0.0006077251746319234,0.36012622714042664,-1.4820951223373413,-0.7886670827865601,0.15305180847644806,-1.531733751296997,-0.3448626697063446,-0.08102964609861374,0.22686144709587097,0.16778349876403809,0.9130316376686096,1.1689743995666504,-1.3624341487884521,-0.3677777647972107,-0.03965442255139351,-0.6613630056381226,-0.6958454251289368,-0.1813124269247055,-0.9575921297073364,-0.6200785636901855,0.8265920281410217,-0.31930509209632874,-0.5165857076644897,-0.21707309782505035,1.114137053489685,-0.4042164087295532,0.36741116642951965,0.04213380441069603,-0.832251787185669,0.21848736703395844,-4.117223739624023,-0.5688136219978333,-0.45966899394989014,1.1389611959457397,0.5050576329231262,1.7443873882293701,-0.5607892274856567,-0.8231680393218994,-0.32304492592811584,0.7413190603256226,-0.3707083463668823,0.021832680329680443,-0.7099104523658752,1.060520052909851,0.5682317018508911,1.09373140335083,0.5429955124855042,0.4255063831806183,0.5241066217422485,-1.0903502702713013,-0.5806326270103455,1.7649660110473633,-0.21087895333766937,-0.2328168898820877,-1.0703645944595337,0.9496124982833862,-1.2114613056182861,-0.5868617296218872,0.3455587923526764,-0.6516808867454529,0.4047544300556183,-1.0581356287002563,0.4024372100830078,-1.0166388750076294,-0.7870779037475586,-0.6643613576889038,0.06003299728035927,0.3762887716293335,0.30131152272224426,-1.0427162647247314,0.4016912877559662,1.243668556213379,0.27423834800720215,0.34936487674713135,0.3747933506965637,-1.1943914890289307,1.0138996839523315,-0.21793408691883087,0.869357168674469,0.14466173946857452,-0.5056833028793335,0.48097649216651917,2.1052732467651367,1.3914796113967896,-0.22430038452148438,-0.20787842571735382,0.7893033027648926,0.08471548557281494,-0.4318390190601349,2.287660598754883,1.8083680868148804,1.9365047216415405,2.228511095046997,0.9921091794967651,-1.9745415449142456,0.003965959884226322,0.08041908591985703,1.094251036643982,1.703418254852295,0.5246695876121521,0.8407996892929077,-1.4224828481674194,0.24842692911624908,-1.8723779916763306,0.03735893964767456,-0.047350380569696426,1.0667104721069336,-0.8929465413093567,-0.9664946794509888,0.37789151072502136,-0.11173103749752045,-0.04530572146177292,0.7743633985519409,-0.07629702985286713,0.5740876793861389,0.40173569321632385,-0.6333398222923279,-1.3832322359085083,-0.6234856247901917,0.9538126587867737,-0.2801460921764374,-0.8529746532440186,2.1480915546417236,1.1751599311828613,-1.7658437490463257,1.2862149477005005,-0.30589085817337036,-0.7399181127548218,0.6280211210250854,-1.5524152517318726,-0.7767319679260254,-1.4466675519943237,-1.2503225803375244,-0.8730477094650269,-2.654770612716675,0.08300654590129852,-0.30800125002861023,0.9521616101264954,0.47680315375328064,3.98433518409729,0.23719289898872375,-1.9619513750076294,-0.6684505939483643,-2.102900981903076,-2.9804530143737793,2.654195785522461,-2.458287477493286,2.7438318729400635,-0.6085054278373718,-0.7414236068725586,2.5982666015625,-0.20987504720687866,0.2945690453052521,1.7294871807098389,-2.515995502471924,1.8665097951889038,-1.3042888641357422,1.5540275573730469,-0.08279736340045929,0.2171967327594757,0.3360907733440399,0.2984749376773834,1.1991525888442993,2.851189374923706,-2.148477077484131,0.5769141912460327,2.4161059856414795,-0.15943403542041779,0.3527679741382599,-2.4907407760620117,0.06833744794130325,0.7600730061531067,-1.1233513355255127,-1.2511476278305054,0.9012100100517273,-0.25079724192619324,0.8227750062942505,0.5789014101028442,0.12110136449337006,0.5581313967704773,0.8916415572166443,0.5261927247047424,-0.09736718237400055,-0.10226236283779144,0.790780246257782,1.3222554922103882,-0.0672185868024826,0.8657103776931763,-0.5127784609794617,0.9134500622749329,0.42285481095314026,0.39025479555130005,0.5652251839637756,0.29975539445877075,-1.2195067405700684,-1.49972665309906,0.05966557562351227,-0.8742413520812988,0.8491524457931519,0.6156142950057983,-0.5874637961387634,1.0870215892791748,-0.605902373790741,-0.033440377563238144,-0.8351105451583862,-0.7825990319252014,-0.7703520655632019,-0.5047580003738403,-0.24982903897762299,-0.9288095831871033,-1.0345379114151,0.9114600419998169,0.4628371596336365,-0.49876368045806885,0.006527520250529051,0.07053526490926743,0.9478821754455566,0.6571530103683472,0.5151248574256897,1.1944012641906738,0.35364067554473877,-0.09628567844629288,-0.2748989462852478,2.1609747409820557,1.3358139991760254,-0.40130239725112915,0.6680683493614197,1.7245454788208008,0.8417365550994873,-0.1604406237602234,0.02279875986278057,1.7051767110824585,1.7848505973815918,0.23612570762634277,0.7208257913589478,-1.63206148147583,1.2825489044189453,-0.6557155847549438,0.5409164428710938,1.7036433219909668,0.640466034412384,0.16091133654117584,-2.0037975311279297,-1.3939248323440552,-1.131206750869751,0.025467190891504288,0.16167739033699036,0.02302255667746067,-0.46382278203964233,-2.028712511062622,0.48607370257377625,-1.9303948879241943,-0.5928304195404053,-0.3555244207382202,0.06352081149816513,0.6724632382392883,-0.32158827781677246,-2.032348394393921,2.257741928100586,0.014367733150720596,-0.0529344268143177,-0.5322286486625671,-0.08638503402471542,1.7646359205245972,-1.1922310590744019,-0.3712247312068939,0.29386383295059204,0.07264312356710434,0.7844695448875427,-0.3423672318458557,0.4528250992298126,0.8449831008911133,-0.25984951853752136,0.6904875636100769,0.9830697178840637,0.8597441911697388,0.8861040472984314,1.2494292259216309,2.2150461673736572,2.2143516540527344,1.4764405488967896,2.101912021636963,-1.1880152225494385,0.253004789352417,0.1301046460866928,0.6717533469200134,0.7276006937026978,0.3038348853588104,0.3211064338684082,-1.9639410972595215,-0.4406871497631073,-0.3966413736343384,-0.02534741535782814,-0.7491446733474731,-0.4266265630722046,0.22992190718650818,-0.38320544362068176,0.8914108872413635,1.2477762699127197,-2.169337511062622,0.49230116605758667,0.2130485624074936,0.563048243522644,-1.5424025058746338,-0.9046517014503479,1.2921209335327148,-0.48134270310401917,-0.05967305973172188,0.7636814117431641,-0.44192275404930115,1.3585022687911987,-0.7285348176956177,-0.6818113923072815,-0.7465632557868958,-1.3715081214904785,0.8666646480560303,-0.9069580435752869,0.58414226770401,0.3176603615283966,-0.10461415350437164,0.3687700033187866,0.3866520822048187,-0.32544076442718506,0.3770052194595337,-1.4138096570968628,0.8444938659667969,1.2865686416625977,0.7445014119148254,0.8149734735488892,0.6461939811706543,0.39648130536079407,-0.20879584550857544,-0.32944557070732117,0.7596946954727173,-0.9695459604263306,-1.0071133375167847,-1.4814308881759644,-0.07839863747358322,-0.7411519885063171,0.5854517817497253,1.365362524986267,-0.8075183033943176,0.22707584500312805,0.4288475811481476,-0.761440634727478,-0.6710861921310425,-0.7530885338783264,-0.3646337687969208,-0.4964873194694519,-0.497293084859848,-0.3154718279838562,-0.5292090773582458,0.37131619453430176,0.39134731888771057,-0.5047171711921692,0.9917383790016174,0.6552954912185669,0.3879966735839844,0.6750236749649048,-3.049452304840088,2.246178150177002,-1.1784136295318604,0.01945868879556656,-0.3823503851890564,-0.24162331223487854,-0.9029285311698914,-0.8095934391021729,0.9554014205932617,1.161705732345581,0.01909574680030346,-0.451989084482193,1.1657453775405884,1.7520519495010376,1.760799527168274,0.2857597768306732,0.8405619859695435,-3.0197877883911133,0.9193378686904907,-0.7189585566520691,-0.6999969482421875,1.1639950275421143,-3.820965528488159,-0.09703482687473297,-1.3653295040130615,0.3707126975059509,-1.5149450302124023,0.965001106262207,0.831987738609314,-0.10955546796321869,-0.5264487266540527,-0.6828687191009521,-0.17487047612667084,-0.5699483156204224,-0.18768562376499176,0.26428526639938354,-0.8896574974060059,-0.7762158513069153,-0.7012982368469238,-0.3817913830280304,-1.2481238842010498,0.025497393682599068,-0.702907145023346,0.15536120533943176,-0.19249273836612701,0.18139560520648956,0.8545621037483215,-2.228198766708374,0.4679538905620575,-0.34310683608055115,-0.22166302800178528,-0.2642259895801544,-0.7947830557823181,-1.982107400894165,-1.5362788438796997,-0.7853448390960693,-0.8019028306007385,-1.0672446489334106,1.1848360300064087,-1.264264702796936,-0.06573182344436646,-0.5333136320114136,0.9643567800521851,-0.49055665731430054,0.23835454881191254,0.3599662184715271,-1.4054569005966187,-1.748363971710205,-0.14644475281238556,-1.9556313753128052,0.05141494795680046,0.8479035496711731,-0.10164166241884232,0.8825191855430603,1.2915070056915283,0.4565703868865967,-0.9658011794090271,0.30168676376342773,1.318468689918518,-1.573267936706543,0.3846365511417389,0.9577875733375549,-1.194981336593628,-1.242209553718567,1.9447747468948364,0.4015471637248993,1.6359483003616333,1.5067516565322876,1.5425487756729126,0.08883030712604523,0.9582980871200562,1.087756633758545,-2.1857120990753174,-0.36254823207855225,-1.6366949081420898,0.8291659355163574,0.4848785102367401,0.31910204887390137,0.09221857041120529,1.2582511901855469,-1.184484601020813,-1.0342695713043213,1.3364322185516357,1.85341477394104,0.1441890299320221,0.47423794865608215,0.05826060473918915,1.629308819770813,2.0255067348480225,2.212050437927246,0.5249781608581543,-0.5303112268447876,-0.27486714720726013,-0.7132044434547424,-1.2230762243270874,0.8843992352485657,1.0410901308059692,1.1413241624832153,-1.3887940645217896,0.33613499999046326,-1.5377484560012817,-1.5358916521072388,0.5203522443771362,-0.470711350440979,0.008690743707120419,-1.6715327501296997,0.7160841226577759,-0.8703771233558655,-1.3389160633087158,-0.3932341933250427,0.5788584351539612,-0.7580771446228027,-0.6981716752052307,-0.7409133315086365,0.987715482711792,1.030861735343933,0.4083848297595978,0.288662850856781,-0.33496716618537903,-0.036331385374069214,1.3119149208068848,0.5101738572120667,2.3032066822052,-1.0190106630325317,-0.25917282700538635,-1.6435827016830444,1.7062499523162842,-1.7652097940444946,-1.900368332862854,-0.6505162119865417,-0.6860791444778442,0.19574205577373505,1.4129393100738525,-1.6002141237258911,0.7619720101356506,-0.3233034014701843,1.9865120649337769,-1.892035722732544,0.300503134727478,0.6454136967658997,-2.635451078414917,-1.5977318286895752,-0.48829302191734314,-2.515423059463501,0.4669094979763031,1.440960168838501,0.5202391743659973,-0.212317556142807,0.1366148442029953,0.22205114364624023,-1.2608307600021362,-0.09949947893619537,-0.443769246339798,-0.14754317700862885,-1.8239041566848755,1.4403660297393799,-1.8543932437896729,-0.6436685919761658,3.1870486736297607,0.7801551818847656,-0.39313945174217224,0.36808809638023376,1.8737303018569946,-0.4552638530731201,1.726665735244751,1.188688039779663,-2.6113483905792236,1.1080855131149292,-3.4604732990264893,0.21231698989868164,-1.2710742950439453,0.5468069314956665,2.159621477127075,-0.7795776724815369,-1.0787659883499146,0.08005519211292267,-0.3763536214828491,0.1514904797077179,-0.38616207242012024,0.46491947770118713,0.4813254475593567,0.7914697527885437,-0.37184378504753113,2.950249433517456,-1.263031244277954,-1.264214038848877,0.711043655872345,-1.8572951555252075,-1.5111746788024902,2.620091199874878,-1.5298439264297485,3.3233120441436768,-0.42895635962486267,-0.5422513484954834,1.2414422035217285,-0.2895578145980835,0.0016777323326095939,2.1957151889801025,-2.089545249938965,0.6778165698051453,-0.7200049161911011,1.2904852628707886,0.7834607362747192,0.5900827050209045,-0.6775538325309753,-0.4144279360771179,0.46416613459587097,1.135722279548645,-0.8630980849266052,-1.6569675207138062,2.4761390686035156,0.5424190759658813,-0.5053905248641968,-2.9137487411499023,0.2555599808692932,-0.3646854758262634,2.377549886703491,1.4026916027069092,0.5941290259361267,-0.8176642656326294,-0.5151379704475403,-0.014256788417696953,-1.1436703205108643,0.9469122290611267,0.7121424674987793,0.6397196650505066,-0.4540713429450989,0.6456540822982788,1.1967276334762573,0.5654894709587097,-2.2966668605804443,0.1673714518547058,-3.142615795135498,-0.49635428190231323,-1.4183202981948853,1.7672909498214722,0.5412926077842712,-0.6223267316818237,0.1739894151687622,-0.34290939569473267,0.44430747628211975,-0.27913469076156616,0.0521908737719059,-0.7504157423973083,-0.8811482787132263,-1.43233060836792,-0.3224596083164215,1.203947901725769,-0.6776451468467712,0.06521730124950409,-1.3850760459899902,-0.5666050314903259,0.405271053314209,-1.0820262432098389,-0.9264899492263794,-1.7883473634719849,1.2680999040603638,-0.9605719447135925,0.29393041133880615,-2.1830766201019287,1.2195303440093994,0.7949762344360352,-0.1714080572128296,-2.9545483589172363,-0.5048002004623413,-1.1370981931686401,0.36838212609291077,-0.21202227473258972,0.17082864046096802,1.411959171295166,2.461089849472046,1.5904321670532227,-0.3291461765766144,1.1404852867126465,0.3950362503528595,0.5514468550682068,0.9264791011810303,1.5402201414108276,0.5426547527313232,-0.9827501773834229,-1.9407145977020264,0.15213048458099365,-0.5473012924194336,-0.8447962403297424,1.0853829383850098,0.206255242228508,-0.16996006667613983,-0.8614988923072815,-0.014475090429186821,1.2765153646469116,0.4394304156303406,3.7944726943969727,1.7477372884750366,-1.4985883235931396,-0.15984414517879486,1.0405077934265137,-1.2743380069732666,0.47895315289497375,-0.42674165964126587,0.5460920333862305,-1.8717740774154663,1.5936126708984375,1.4245716333389282,-1.3999274969100952,1.4395606517791748,-1.1143572330474854,0.9568945169448853,0.47591668367385864,0.29435625672340393,-4.511744022369385,-1.0077130794525146,0.45823511481285095,-0.28891313076019287,0.9898697733879089,0.5731915235519409,-0.9580992460250854,-0.9630597829818726,-0.28708505630493164,0.5876710414886475,-1.3044054508209229,0.787112832069397,-0.5534656047821045,-0.47784560918807983,0.27817222476005554,0.34124425053596497,0.3057098686695099,1.4546386003494263,1.5275741815567017,-0.672681450843811,-1.0271943807601929,1.703255534172058,-0.675714373588562,-0.44654589891433716,-0.23651735484600067,0.6774307489395142,-0.6334196329116821,1.275760293006897,1.1614874601364136,-0.7003693580627441,0.47592219710350037,-1.3501204252243042,-0.5019569993019104,-0.6421955227851868,-0.19879838824272156,-0.9203259348869324,-0.2695011496543884,1.4826946258544922,-0.06969202309846878,-1.0467593669891357,-0.2107616364955902,0.9177436232566833,0.9834141731262207,-0.8079042434692383,-0.6415241360664368,-1.6277258396148682,1.4069116115570068,-4.183482646942139,0.846339225769043,0.26097407937049866,0.9130784869194031,0.05096963047981262,1.3476499319076538,-1.3726764917373657,-2.0356688499450684,-0.7142411470413208,0.6967893838882446,-0.8064866065979004,-0.391471266746521,0.8089973330497742,0.7569181323051453,0.5014790296554565,0.7338418960571289,0.10112610459327698,-0.5692089796066284,1.7701972723007202,-1.6526907682418823,-0.20091094076633453,2.1658170223236084,-0.14407864212989807,0.585863471031189,0.31150445342063904,1.3733587265014648,-1.2108795642852783,0.41400617361068726,-0.06415466964244843,-2.103975772857666,-0.25302380323410034,-1.4551721811294556,0.755054771900177,-0.6478765606880188,0.17314447462558746,-1.8939776420593262,-0.3428625464439392,0.6946613788604736,0.23734374344348907,-0.6728092432022095,0.8111034035682678,1.9549590349197388,0.34087926149368286,1.4606428146362305,-0.3850334882736206,-1.384342908859253,1.2275432348251343,1.2340402603149414,-1.2841110229492188,0.09591116011142731,0.3680936396121979,-0.7164514064788818,0.28050869703292847,0.44157618284225464,0.044244538992643356,1.4428542852401733,-0.3898049592971802,0.2232479602098465,0.44787439703941345,-1.5549325942993164,0.7947205305099487,0.5677944421768188,0.36008232831954956,0.7730435132980347,1.5216588973999023,1.6959872245788574,-0.804290235042572,-0.787146270275116,0.6036009788513184,-0.1377944052219391,-1.4647626876831055,-0.5907853841781616,0.18637828528881073,-0.00898854061961174,0.7133906483650208,-0.3885924220085144,-0.4045502841472626,1.8332215547561646,-1.5445610284805298,-0.1729583442211151,-0.14153285324573517,-0.8455284833908081,-0.5949123501777649,-0.31275370717048645,0.12949597835540771,-1.0492517948150635,-0.6877096891403198,0.47259512543678284,0.6536241173744202,-1.6197229623794556,0.1036238968372345,1.3627325296401978,-0.24033676087856293,0.33182191848754883,-1.543497085571289,-0.8273000717163086,-1.946601390838623,1.3487615585327148,-0.6822704672813416,1.5362696647644043,0.09239435940980911,-0.5404313206672668,-0.18573200702667236,0.4243847727775574,-0.2153458148241043,-0.26768529415130615,-0.4773949384689331,1.7006785869598389,1.7685985565185547,0.49926701188087463,1.5918521881103516,-0.7639689445495605,0.43663132190704346,-1.1238170862197876,-0.4118208885192871,0.9954431056976318,-0.567329466342926,-0.9810410737991333,-1.903028130531311,1.3674300909042358,-1.825122356414795,0.22374238073825836,0.77498459815979,-0.5929133296012878,0.2858947217464447,-0.815490186214447,-0.4935072660446167,-0.6628292202949524,-1.0907046794891357,0.2730395495891571,-0.7979384660720825,-0.43051841855049133,0.305055171251297,-1.507118821144104,0.07834237068891525,-0.1414610594511032,-0.28247183561325073,1.6013362407684326,1.1868255138397217,-0.04135945811867714,0.8573068976402283,0.18386876583099365,1.1368299722671509,0.24090711772441864,-1.733944296836853,1.993902564048767,-0.1605151742696762,2.391266107559204,1.20184326171875,-1.582358717918396,-1.507012128829956,1.401018500328064,-1.7156888246536255,1.0070372819900513,-1.047484278678894,-0.26422634720802307,-2.1244916915893555,-0.5033046007156372,-0.6872217655181885,1.3532665967941284,0.032945528626441956,1.5771567821502686,-0.14285770058631897,0.9913291335105896,0.5835055112838745,1.6035407781600952,-0.04612567275762558,0.5083069801330566,-0.4932748079299927,-0.433776319026947,-1.1557191610336304,-0.5097076892852783,0.23708824813365936,0.5098676085472107,0.8993518948554993,-0.01902424916625023,-0.8841598033905029,1.3595961332321167,-1.7454602718353271,1.361629605293274,0.0002833062317222357,-1.9977394342422485,0.3974890410900116,0.4674123525619507,-1.0301560163497925,-0.2286645621061325,1.515594720840454,0.08256670832633972,0.08340031653642654,0.1174393892288208,-0.5731595158576965,-0.41098684072494507,-2.2077832221984863,1.1851774454116821,0.24493299424648285,0.2837122678756714,0.13108807802200317,-0.20636595785617828,0.11145196855068207,-0.5814749598503113,-0.36763766407966614,1.3818937540054321,1.0544849634170532,-0.05446968227624893,1.0644001960754395,0.6451389789581299,0.6381843686103821,0.6209939122200012,0.5207896828651428,1.57113516330719,0.42469358444213867,-2.8612098693847656,-1.150932788848877,-0.21223223209381104,-0.12180475890636444,-0.09309487789869308,-0.6593152284622192,-0.9835110306739807,1.1377147436141968,-0.6657419800758362,-0.18752554059028625,0.446441113948822,-0.7538673877716064,0.18163365125656128,-0.5949072241783142,0.1251930594444275,0.009572476148605347,-0.7110788226127625,-0.057153791189193726,-0.6308524012565613,-1.5289024114608765,2.001389503479004,0.23393724858760834,0.9906685948371887,-0.30104517936706543,-0.7014787197113037,-0.16954824328422546,-0.7877486348152161,1.302873134613037,-0.5944681763648987,-0.6126214861869812,-1.5209819078445435,-1.1533293724060059,-0.09032738953828812,-0.34295427799224854,-1.4476650953292847,1.3047479391098022,-1.9051592350006104,0.9206730127334595,0.7730280756950378,1.616028070449829,0.06342433393001556,0.07866203784942627,-1.6501878499984741,-0.2966766059398651,-1.440230369567871,-0.07002124935388565,-1.1756889820098877,0.6651355028152466,-0.6634376049041748,0.09378065168857574,-0.708524227142334,-0.44018590450286865,1.1230183839797974,-0.9899142384529114,-0.36913803219795227,0.14017610251903534,-1.1627826690673828,0.6921519637107849,-0.3686586022377014,0.42955440282821655,-0.33829283714294434,0.04380510747432709,0.19675573706626892,0.5959905982017517,-0.594459593296051,0.28899437189102173,-0.08890000730752945,2.835942029953003,1.796966791152954,-1.54524564743042,-0.7550471425056458,0.009946700185537338,-0.014339090324938297,0.058401018381118774,0.006088842637836933,-0.07183284312486649,0.07298191636800766,0.050793737173080444,0.037169307470321655,-0.007325256243348122,0.007469573523849249,-0.03985796868801117,0.018732335418462753,-0.07066775858402252,0.0432136207818985,-0.01396849937736988,-0.002762455493211746,-0.017119405791163445,0.0011972328647971153,-0.022808261215686798,0.01648583635687828,0.04776555672287941,-0.07014120370149612,0.006010241806507111,-0.0342012383043766,-0.009169314987957478,0.026027008891105652,0.07124917954206467,-0.0440855510532856,0.050858911126852036,-0.04963105916976929,-0.04189545288681984,0.036717452108860016,0.009187182411551476,-0.04546277970075607,-0.07054716348648071,0.014926828444004059,-0.05789490416646004,-0.07702019065618515,-0.055536046624183655,-0.07819941639900208,-0.01362340897321701,0.04837668314576149,0.04503817483782768,-0.053023725748062134,0.057785917073488235,0.07041463255882263,0.04162294790148735]},"hiddenLayers":[{"inputMatrix":{"rows":20,"columns":47,"weights":[-1.2568238973617554,-0.41201478242874146,0.5103108882904053,-0.28276535868644714,0.704821765422821,-1.2053046226501465,-1.835470199584961,0.12235996872186661,0.13834381103515625,-0.9913808107376099,-0.3855769634246826,-0.3081566393375397,-1.4485926628112793,-0.31208518147468567,-0.4375046491622925,-0.36304038763046265,0.6877394914627075,0.3780377209186554,0.9745013117790222,-1.2299240827560425,-0.7407482862472534,0.7180028557777405,-1.4696717262268066,0.37019434571266174,0.7399853467941284,-0.8098493218421936,1.147600769996643,0.9362637400627136,0.1697801649570465,0.060091983526945114,-0.021131573244929314,1.3081220388412476,-0.986407458782196,0.9645371437072754,0.10230402648448944,-1.1244562864303589,0.015063677914440632,-0.6567168831825256,-0.024554645642638206,0.823439359664917,-0.2054608315229416,0.2988244295120239,-0.5030583739280701,-0.5562442541122437,-0.16820089519023895,-0.9328427910804749,-0.3888636827468872,0.14701156318187714,0.07638619095087051,0.21242186427116394,-0.7790154218673706,1.435325026512146,-0.19173899292945862,-0.4634319543838501,0.4905651807785034,-0.9223244786262512,-0.8753213882446289,-0.4485624134540558,0.328750342130661,-0.43265500664711,-0.954143226146698,-0.7445156574249268,0.3145938813686371,-0.5835238099098206,0.030021080747246742,-0.2665161192417145,-0.5515794157981873,-0.28942355513572693,-0.25415778160095215,0.09398793429136276,0.26973894238471985,0.7591077089309692,-0.28690221905708313,0.48438459634780884,-0.37549495697021484,0.5597232580184937,1.3694875240325928,-0.01911439187824726,0.25749969482421875,-0.3534715473651886,0.574677050113678,1.9597406387329102,-0.23379051685333252,1.1899967193603516,-0.9047422409057617,1.1788609027862549,0.16377003490924835,-1.1044082641601562,0.23114638030529022,0.7921422123908997,-1.2071342468261719,-0.2138879895210266,-0.4678114354610443,0.055101048201322556,0.4203076660633087,-1.1242594718933105,-1.9532650709152222,0.0713871493935585,0.1646718680858612,-0.07922357320785522,1.3552312850952148,1.15659761428833,-0.18599478900432587,0.21208232641220093,0.3598192632198334,-0.7707177996635437,-0.14671023190021515,0.4900070130825043,0.08274619281291962,0.7302596569061279,0.683279812335968,1.0331730842590332,1.4662411212921143,0.19344399869441986,0.2841609716415405,-0.43195322155952454,-0.6276019811630249,-0.9623080492019653,-0.47122839093208313,0.3863353133201599,0.0322340689599514,1.1940813064575195,0.10362560302019119,-0.9365557432174683,0.49052807688713074,-0.3371623158454895,-1.3491743803024292,0.6882478594779968,-0.31782403588294983,0.4010768234729767,-0.36019277572631836,-0.8028421998023987,0.28287583589553833,-1.0391721725463867,1.3335487842559814,-0.6443865299224854,-0.5720126032829285,0.36697909235954285,1.3887821435928345,0.03421627730131149,-0.885918915271759,-0.0013691086787730455,0.530476450920105,-0.7970680594444275,0.4240753948688507,0.023089924827218056,-0.2804311513900757,-0.9344752430915833,0.1519371122121811,-0.26632604002952576,-0.4296841025352478,-0.43059995770454407,-0.6308735609054565,0.10851787030696869,-0.3570898175239563,0.5658069252967834,-0.09812189638614655,0.4888807237148285,-0.43386808037757874,0.7696015238761902,-0.44833940267562866,0.030060624703764915,0.19117532670497894,-0.8622944951057434,-0.18924583494663239,-0.40813788771629333,-0.1472949981689453,-0.4995588958263397,0.455513596534729,-0.04741627722978592,-0.16065971553325653,0.1999722123146057,0.6000819802284241,-1.133970022201538,-0.44972434639930725,0.17069147527217865,-0.04272640123963356,-0.3017585873603821,-0.6445664763450623,0.3612208366394043,0.560651957988739,-0.4566940665245056,0.2284088283777237,-0.8159307241439819,0.033413760364055634,0.8853701949119568,-0.01702270470559597,0.5106152892112732,0.8184800744056702,0.06015767157077789,-0.6191040277481079,1.3441914319992065,-0.8862879872322083,0.9873338937759399,0.9227092266082764,-0.0168303232640028,1.5214710235595703,1.1164716482162476,-0.38815242052078247,-0.0031372648663818836,0.31636956334114075,1.214009404182434,1.217936635017395,0.19829557836055756,1.2084722518920898,-0.18867896497249603,-0.6944213509559631,-0.03532370552420616,0.17281220853328705,-0.3275941014289856,0.5693097710609436,0.0005934310029260814,-1.406116247177124,0.32429465651512146,-0.30024850368499756,0.5942476391792297,0.3264711797237396,0.47480887174606323,0.2232913374900818,-1.4598894119262695,0.3134177625179291,-1.3632382154464722,-1.2897179126739502,-0.5321090221405029,-0.42293408513069153,0.33274930715560913,-1.1847909688949585,-0.8575763702392578,-0.45894888043403625,0.6262199878692627,-0.7752532958984375,0.4236772656440735,0.25886568427085876,0.733738362789154,0.23690636456012726,-0.2927705943584442,0.17776143550872803,-0.25107541680336,1.5384008884429932,-0.4381806552410126,-0.28646865487098694,-0.8164528608322144,-0.6473138928413391,0.5322549939155579,-0.30376431345939636,0.18465761840343475,0.3996593952178955,-0.4480643570423126,0.028952283784747124,-0.16448372602462769,-0.45634886622428894,0.14632739126682281,0.19215713441371918,1.1956428289413452,-0.6337031722068787,0.02783842571079731,1.136082410812378,0.6119295358657837,-1.502528190612793,0.4419924020767212,-0.4412764310836792,-1.0367070436477661,-0.06560361385345459,-0.5081530213356018,-0.9557188153266907,0.880357027053833,-0.37700340151786804,-0.35680195689201355,0.13757923245429993,0.1267624795436859,-1.629245400428772,0.11553733050823212,0.938738226890564,-0.07253141701221466,-0.602816641330719,-0.18905581533908844,1.1700844764709473,-0.4279099702835083,1.586456537246704,0.25550469756126404,-0.2299824059009552,0.041801970452070236,-0.5187429189682007,0.4613035023212433,-0.2547244131565094,-0.4246707856655121,0.49185457825660706,-0.24923965334892273,0.4374502897262573,0.4614276587963104,0.35933640599250793,0.07995565235614777,0.34507694840431213,-0.973737895488739,0.24240736663341522,-0.5394859313964844,-0.7245636582374573,-0.49289044737815857,-0.28906530141830444,-0.30059561133384705,-0.6931563019752502,-0.6416807174682617,1.4050160646438599,-0.5523503422737122,-0.020305316895246506,0.7276831865310669,0.44245660305023193,0.17292886972427368,1.7591296434402466,0.2322203516960144,-1.0263447761535645,1.2180730104446411,-0.78249192237854,0.697123110294342,0.14120469987392426,-0.5156339406967163,-0.6696428656578064,0.04253033176064491,-0.3363887071609497,-0.2579524517059326,-0.5860803723335266,1.6274741888046265,-1.4395310878753662,0.5044512152671814,0.4213656783103943,-1.266230583190918,-0.7744468450546265,0.8658271431922913,0.5697692036628723,-1.2168697118759155,0.3593539595603943,0.4039906859397888,-0.20778343081474304,-0.6340405941009521,-0.7600359916687012,-0.40872466564178467,-0.19051802158355713,0.746584415435791,0.637986958026886,-0.011919045820832253,0.7716290354728699,-0.23000335693359375,0.5715751647949219,0.8625836968421936,0.5904987454414368,0.2730041444301605,-0.35600683093070984,-0.8717023134231567,-0.5775778293609619,-1.3874825239181519,0.05590950697660446,-0.2717163860797882,0.9628950357437134,0.09267455339431763,0.24689966440200806,-0.16841889917850494,-0.03531612455844879,0.941285252571106,0.7492795586585999,0.030708778649568558,-0.003758329199627042,-0.1482713669538498,0.5903422236442566,-0.27931854128837585,0.09308335930109024,-0.847979724407196,0.872290313243866,-0.4951261878013611,0.22748325765132904,0.2530475854873657,-0.09982090443372726,-0.09838777780532837,0.2675726115703583,0.34026437997817993,-0.6230723261833191,0.24089381098747253,0.05932634696364403,-1.0220630168914795,0.1321340948343277,-0.8358870148658752,1.0512140989303589,-0.9984557032585144,-0.38745394349098206,0.8817406892776489,-0.013994979672133923,-0.19541482627391815,-0.07724497467279434,0.27777254581451416,-0.21254847943782806,-0.14922964572906494,-0.3779021203517914,0.4748143255710602,0.2170536369085312,-0.09286970645189285,-0.6747412085533142,0.09925640374422073,-1.5648692846298218,-0.6466919183731079,0.05011817440390587,0.011524873785674572,0.3117961585521698,-1.0747811794281006,1.1600292921066284,0.5033912658691406,0.25507062673568726,0.6481233835220337,0.851097583770752,0.7490389943122864,-0.34569433331489563,0.889733076095581,-0.048438508063554764,0.10012026131153107,0.6182183623313904,-1.0235590934753418,0.13316412270069122,0.9770764708518982,-0.14476615190505981,0.10535389930009842,0.683903157711029,-0.7608394026756287,0.4164607524871826,-0.9652538299560547,-0.5227933526039124,0.8318061232566833,-1.5330151319503784,-1.0157071352005005,0.31376346945762634,-0.15334559977054596,0.923693060874939,-0.38759657740592957,-0.9837824702262878,-0.6948214769363403,-0.11957188695669174,-1.4989962577819824,0.5876766443252563,-0.07413003593683243,0.8863433003425598,0.990342915058136,0.770218551158905,0.5349310636520386,0.26897135376930237,-0.37260299921035767,0.3408353626728058,-1.1409661769866943,1.8024111986160278,0.8029299378395081,-0.03867616131901741,-0.7981447577476501,0.6041131019592285,-0.9103463888168335,0.23118692636489868,1.590929388999939,-1.1191344261169434,2.1434326171875,-0.12238325923681259,-1.2645516395568848,-0.04469382390379906,-0.5757737159729004,-0.05569838359951973,-1.2603864669799805,2.320028305053711,0.5309677124023438,-0.2313094288110733,1.7286298274993896,0.5297060608863831,0.1360708326101303,0.6828812956809998,1.828743577003479,-1.3298832178115845,0.25677844882011414,0.6108191609382629,0.5187045931816101,-0.08878172188997269,-0.7154378294944763,0.04480405151844025,-0.35033121705055237,0.8241223096847534,0.2698793411254883,-1.3493678569793701,-0.4286322593688965,-0.36299413442611694,-0.7891759872436523,-0.3263101875782013,-1.3529465198516846,-1.0760215520858765,-1.343639850616455,-0.22104232013225555,-0.1316155195236206,-0.5973141193389893,0.1825176626443863,0.622201144695282,-0.2110060751438141,0.13801369071006775,-0.4326740801334381,1.243787169456482,0.04038381576538086,0.20211908221244812,-0.12158140540122986,-0.30347129702568054,-0.006112152710556984,-0.3011367917060852,0.26081544160842896,-0.15015512704849243,0.3647996187210083,1.0141360759735107,0.42725038528442383,0.3658413887023926,-0.5110560059547424,1.2010706663131714,0.14050012826919556,-1.0743186473846436,-0.14142948389053345,0.2823033034801483,-0.066059410572052,0.7135589122772217,-0.476102739572525,-0.4268185496330261,0.9143226742744446,-0.4485630989074707,0.9578010439872742,0.20563380420207977,0.6131080389022827,-0.5102409720420837,-2.321509599685669,0.618603527545929,0.8980036973953247,0.029607970267534256,0.8231716156005859,0.6942277550697327,-0.18287943303585052,0.03807174414396286,0.00023531728948000818,-0.496404230594635,0.2445274293422699,-0.5975483059883118,-0.11383870244026184,-0.35071098804473877,-1.021710753440857,-0.467398077249527,1.9769320487976074,-0.3769128918647766,0.10275833308696747,-0.5900330543518066,-1.1236340999603271,-0.43855786323547363,0.5983441472053528,0.5062529444694519,1.4191309213638306,-0.5395697355270386,-0.34153860807418823,0.8942887783050537,-0.10036040097475052,-1.1492352485656738,1.379449725151062,-0.21464963257312775,-0.05017577484250069,-0.3729540705680847,1.7769737243652344,0.409818559885025,-0.5797869563102722,-0.2800222933292389,1.3232501745224,-0.9921363592147827,-0.16083939373493195,-0.636177122592926,-0.4075537323951721,-0.015007211826741695,-1.8741170167922974,1.756595253944397,0.961509108543396,-0.7297371029853821,-0.6731083393096924,-0.003055509412661195,0.45747750997543335,-1.3127455711364746,0.3813181519508362,0.142392098903656,-0.7665258049964905,-0.09086589515209198,1.503057599067688,-1.0100797414779663,0.06508539617061615,-0.6839466691017151,0.4702346622943878,-0.9125775098800659,0.489170640707016,1.5247042179107666,0.9506507515907288,0.2517853081226349,0.29928386211395264,0.20172668993473053,-0.3356062173843384,0.6561525464057922,0.4519878923892975,0.07047345489263535,-0.34977567195892334,-0.06383398175239563,-0.336121141910553,0.3943081796169281,-0.28652113676071167,0.22165215015411377,-0.04740813747048378,0.22732509672641754,-0.37535396218299866,1.322057843208313,1.09300696849823,1.272660732269287,-1.4343266487121582,-0.5577874183654785,-1.6422169208526611,0.07184303551912308,-0.7632498145103455,0.3065578043460846,0.32630810141563416,-0.8307749629020691,0.2518027424812317,-0.2638740539550781,-1.2691426277160645,-0.3523216247558594,-0.843015730381012,-0.7939578890800476,-0.01710681803524494,0.4150961935520172,-0.7453633546829224,-0.5028220415115356,-0.1961793154478073,-0.055891282856464386,-0.23411180078983307,0.540913462638855,-0.17676189541816711,-0.5977988839149475,-0.4432932138442993,-0.10499962419271469,-0.1763983517885208,-0.00970784667879343,0.9610570669174194,-0.508449137210846,-0.41303667426109314,0.051579102873802185,0.5166047811508179,0.48930683732032776,-0.37985435128211975,0.16950564086437225,-0.39257127046585083,0.5584090948104858,0.36532479524612427,0.026106128469109535,1.2530114650726318,-0.11115289479494095,0.9691243767738342,-0.029181579127907753,-0.404402494430542,0.30429595708847046,0.6254822015762329,-0.2852271497249603,-0.07544437050819397,-1.4118322134017944,-0.014995070174336433,0.1489650160074234,0.8520599603652954,0.04637524485588074,-0.7202568650245667,1.25615656375885,0.05394356697797775,-0.37322068214416504,-1.015813946723938,-1.8813174962997437,-1.2404924631118774,-0.26281848549842834,-0.39914703369140625,0.547962486743927,-0.7427875995635986,-1.1993016004562378,-0.5856621861457825,-1.153343915939331,-0.6574008464813232,0.5010969042778015,-0.6428958177566528,0.5164117217063904,0.8566818833351135,-0.007149665616452694,-0.37607643008232117,1.1502958536148071,0.34162381291389465,0.20956100523471832,0.0052038575522601604,-1.009132981300354,-1.124639630317688,-0.3222193121910095,0.0663146898150444,0.7769721746444702,-0.09170706570148468,1.5363495349884033,-1.1975998878479004,0.6819836497306824,1.4000753164291382,0.7633591890335083,-0.4002456068992615,-0.7848190665245056,1.4861305952072144,0.9245395660400391,-0.22010387480258942,-0.6269382834434509,-1.1779775619506836,-0.16263411939144135,-0.9729123115539551,-0.7286320328712463,-0.3391989767551422,-0.7011208534240723,-0.37264978885650635,-0.2813909351825714,0.7148866653442383,-0.038905493915081024,-1.5407098531723022,0.17438381910324097,-0.6297439932823181,-0.26132383942604065,-0.12358751147985458,-0.2941073477268219,-0.7556171417236328,0.47717174887657166,-0.732279896736145,-0.11322982609272003,-1.5397846698760986,1.5231645107269287,-0.03444058448076248,-0.19714850187301636,0.22185298800468445,0.3198942244052887,-0.45197200775146484,-0.7877773642539978,1.7592352628707886,-0.5539504289627075,0.16714243590831757,0.45424312353134155,-0.9295213222503662,1.4040215015411377,-0.2925878167152405,1.095272421836853,0.5895887017250061,0.8086201548576355,0.7218008041381836,-0.24024510383605957,0.6455219388008118,1.0334389209747314,0.10505585372447968,0.7020962834358215,0.8294041156768799,0.15589649975299835,0.09835291653871536,0.07020010054111481,-1.618128776550293,0.8853232860565186,0.35429054498672485,-0.3419879674911499,-1.2969614267349243,1.0223253965377808,0.06956768780946732,0.5984009504318237,0.22830171883106232,-1.1936702728271484,-0.18369989097118378,-0.49210265278816223,0.5505978465080261,0.8699856400489807,-1.196645975112915,-0.9146369099617004,1.294306755065918,-0.7954286932945251,-1.277134895324707,-1.6472196578979492,0.8782555460929871,-0.5682008862495422,-0.5289112329483032,0.33502423763275146,1.2385879755020142,0.6917802691459656,-0.13585838675498962,-0.09371994435787201,0.48366960883140564,0.2835398018360138,1.922165036201477,0.6338913440704346,0.2185600847005844,-0.2509341835975647,-0.3846812844276428,1.3765769004821777,0.5890173316001892,1.3331164121627808,0.010865269228816032,1.3234689235687256,0.4617093801498413,-0.19423837959766388,-0.7302234172821045,2.036689281463623,-1.9372342824935913,0.5819568037986755,0.06354518234729767,0.3090441823005676,-1.634486436843872,-0.23386582732200623,-0.7563852667808533,-1.3848164081573486,0.714412271976471,-0.507748544216156,-0.343060702085495,0.8159224390983582,0.5386114716529846,0.5394225716590881,-0.13345788419246674,0.03627752512693405,0.2590595483779907,-0.264334112405777,-0.3126586973667145,0.38328319787979126,-0.5990822315216064,-0.518669068813324,-0.010016963817179203,-0.2979722023010254,-0.31800901889801025,0.1412592977285385,-0.5151258111000061,0.5282223224639893,-0.22792762517929077,-0.972795307636261,1.007646083831787,0.6756840348243713,0.2123991847038269,1.400154948234558,-0.13813963532447815,0.8047237396240234,0.02370811626315117,-0.2623181641101837,-0.4111503064632416,0.020260000601410866,-0.6943025588989258,-1.02521812915802,-0.4256698191165924,0.9804144501686096,-0.5232310891151428,0.15123021602630615,0.8207405805587769,-1.485449194908142,0.13437962532043457,-0.06943123787641525,0.10888998955488205,-1.9936844110488892,-0.1389438807964325,-0.01829005964100361,0.9492900371551514,-0.5677046775817871,1.1265289783477783,0.40838247537612915,0.37752360105514526,-0.5248305201530457,0.279126912355423,0.7229682803153992,0.9682613015174866,-0.6317915320396423,0.08900230377912521,0.28556936979293823,0.547308623790741,-0.021912164986133575,-0.045544229447841644,0.6658931374549866,-0.025400737300515175,-0.7588724493980408,-0.456534743309021,-0.9113283753395081,0.04200737178325653,-0.3354111611843109,-0.6201844215393066,-0.1619262397289276,-0.4962746798992157,0.004158901982009411,-0.28569111227989197,-0.09958315640687943,-0.6712168455123901,0.33212339878082275,-0.0865715965628624,0.6232406497001648,0.2281370908021927,0.676641583442688,0.14793290197849274,0.09404241293668747,-1.8127754926681519,-0.1071513444185257,-0.6137604117393494,0.18720461428165436,1.2418246269226074,0.3758341670036316,-0.4950701594352722,-0.20989808440208435,0.14648811519145966,0.8985615968704224,-0.7396280765533447,0.38299092650413513,0.20238417387008667,0.80080246925354,-0.8553324937820435,-1.5205870866775513,0.205393984913826,0.3855462968349457,0.2592751383781433,0.16633839905261993,0.6219861507415771,0.635405421257019,0.8447203636169434,0.8756230473518372,-0.16649337112903595,-1.2351411581039429,0.8269829154014587,-0.8377764225006104,0.12788335978984833,1.496740698814392,0.0035983857233077288,-0.7420824766159058,-0.46131932735443115,0.7427583932876587,-1.7064844369888306,-0.6994357705116272,-0.9214527010917664,-1.5819427967071533,0.30597761273384094,-0.5840821266174316,0.44420871138572693,-0.6346275806427002,0.1384960561990738,0.09028545022010803,-0.7302194833755493,1.091569185256958,-0.05563214793801308,-1.2607589960098267,0.10131210833787918,0.303847074508667,0.06939336657524109,0.7083824872970581,-0.1946103572845459,-0.4508214592933655,0.7077836394309998]},"inputHidden":{"rows":20,"columns":20,"weights":[-0.11009986698627472,0.10960444062948227,-1.037298321723938,-0.4995242655277252,0.34975630044937134,-1.1207512617111206,-1.604988932609558,0.7958686351776123,0.22179163992404938,0.09771926701068878,0.6628748774528503,0.3281724452972412,1.618942141532898,-0.18070393800735474,0.264636367559433,1.1340620517730713,-0.6743395924568176,0.038201168179512024,-0.29660913348197937,-2.2027835845947266,1.232762336730957,0.7447264194488525,0.38828346133232117,-0.3816510736942291,1.0749953985214233,1.754160761833191,0.11516959965229034,-0.7816820740699768,0.6342169046401978,-0.3202085793018341,-0.1337321698665619,-0.4580102860927582,0.18162061274051666,-0.9405514001846313,0.5788635015487671,1.0869827270507812,-2.032935857772827,0.3433167636394501,-1.44576895236969,-0.3393218517303467,0.5261168479919434,-2.060346841812134,-2.2004594802856445,-1.7356020212173462,-0.6134270429611206,-1.2768275737762451,-2.2479114532470703,0.829334557056427,1.7707654237747192,-1.3797982931137085,0.005775246303528547,1.395944595336914,2.80120849609375,-1.4461556673049927,-2.30523681640625,0.25428342819213867,-0.9216245412826538,-1.817633032798767,-1.9233243465423584,1.6083232164382935,1.8467724323272705,0.3322363495826721,-0.6398947834968567,1.4582600593566895,1.1648699045181274,1.7629246711730957,-1.1790249347686768,-0.5950708985328674,-1.1834946870803833,1.2524410486221313,-1.9003973007202148,-1.1916903257369995,-0.1225992888212204,1.712048888206482,1.5338233709335327,1.248189091682434,-2.745108127593994,0.688697338104248,0.46327725052833557,-3.7603447437286377,0.8111630082130432,-0.3554787039756775,-0.10787374526262283,0.2789747714996338,-0.6080220341682434,-1.6250544786453247,0.2830217778682709,-0.06620849668979645,-0.11808625608682632,-0.4162817597389221,0.8955633044242859,0.30328619480133057,0.5918770432472229,0.032200586050748825,0.25242340564727783,0.4982520639896393,-0.9388647675514221,0.6136033535003662,0.20653021335601807,-0.06973948329687119,-0.3633562922477722,-1.0056744813919067,-1.8032891750335693,-0.6051867008209229,-1.1617110967636108,-1.428269386291504,0.6428466439247131,1.6367896795272827,0.34705331921577454,-0.9104992151260376,0.3108762800693512,-0.9669077396392822,0.4478147327899933,1.9492653608322144,1.3766015768051147,-2.0674610137939453,3.2426788806915283,0.05152757093310356,0.05537034943699837,1.4437793493270874,0.02244926244020462,-1.434486985206604,0.685547411441803,0.7125846743583679,0.7256868481636047,1.0659475326538086,0.26210570335388184,-1.5130945444107056,-1.1383336782455444,0.60419762134552,-0.47565707564353943,0.05564090609550476,-0.9195389747619629,-0.6653791666030884,-0.21450434625148773,-0.1808466762304306,-2.823338270187378,0.0966423749923706,0.5502949357032776,-1.5648984909057617,0.9824158549308777,0.6970945596694946,0.6541386246681213,-1.1811264753341675,1.068725347518921,2.328369140625,-1.3399721384048462,1.0462599992752075,0.855567991733551,0.9986812472343445,-0.37849053740501404,0.4977441430091858,0.2836703360080719,-0.3239990770816803,-0.718869686126709,2.0791373252868652,-0.048112884163856506,-0.5693650245666504,-1.7128180265426636,-1.3408269882202148,-0.0366663821041584,0.34577515721321106,0.7173799276351929,-1.7434091567993164,-0.10549268126487732,0.7658511400222778,-1.1735764741897583,-1.4146099090576172,0.24362774193286896,-0.231881245970726,-0.19576828181743622,-1.3910119533538818,1.0480213165283203,-2.363999843597412,0.6177210211753845,1.612367033958435,-1.9342807531356812,0.23970170319080353,-1.3678686618804932,-1.2973095178604126,0.3349824547767639,0.475490540266037,0.017488963901996613,-0.6315042972564697,0.7908346652984619,0.09742598235607147,-0.23973825573921204,-0.4778873920440674,1.6325504779815674,-0.5195332169532776,-0.6729766130447388,0.18882519006729126,0.24892449378967285,0.8038521409034729,1.941638708114624,-1.824099063873291,1.32527756690979,-0.05371102690696716,2.0977132320404053,-1.421488642692566,-0.7729858756065369,2.0039114952087402,1.864109992980957,-2.911226511001587,2.072307586669922,2.1986851692199707,-2.601828098297119,-0.42232125997543335,2.0930776596069336,0.617784321308136,1.1642769575119019,0.07088422030210495,1.589980125427246,-2.1054134368896484,0.39477068185806274,3.177889108657837,-2.265817642211914,-0.15742093324661255,-1.0452605485916138,-2.3235177993774414,-0.40807342529296875,2.6859469413757324,-0.8063958883285522,-0.4645780324935913,-1.585677146911621,-0.18221810460090637,0.9683927297592163,1.1714425086975098,1.9434566497802734,-1.1296862363815308,0.9224530458450317,0.31319886445999146,0.9771533012390137,0.6602808833122253,-0.07114377617835999,-0.8881363868713379,0.8115055561065674,1.1805768013000488,-0.12750856578350067,0.42987340688705444,0.8410118222236633,-0.5692223310470581,1.6166468858718872,2.3794758319854736,1.6053045988082886,1.9193689823150635,1.0434515476226807,0.7658981084823608,0.03616930916905403,1.7478744983673096,-0.023420866578817368,-0.2693980038166046,-2.569838047027588,1.4160255193710327,0.4132840931415558,-0.9897107481956482,-1.3016853332519531,1.4841766357421875,1.103227138519287,-0.6905848979949951,-0.9456508755683899,0.03657156974077225,0.8153736591339111,-1.4160442352294922,0.479032427072525,1.3335875272750854,-0.5011457204818726,-1.1386202573776245,-0.1501409411430359,-0.48211973905563354,0.3758930265903473,0.18071234226226807,-0.5159291625022888,-1.7606971263885498,0.3293193280696869,0.6364656686782837,-2.0680055618286133,-0.48190638422966003,-1.6835790872573853,-2.437607526779175,0.7623834013938904,-0.8576396703720093,-0.9726251363754272,0.6948743462562561,-0.6941394209861755,0.9288526177406311,1.671954870223999,0.5902391076087952,0.3930777311325073,0.26498138904571533,-0.6572557091712952,0.0468047559261322,-1.3467456102371216,1.0210932493209839,1.230399250984192,-2.274024724960327,-1.2221863269805908,-0.12503032386302948,0.4932616353034973,0.6999890208244324,2.4827558994293213,-1.1823155879974365,-0.20670196413993835,-1.1607862710952759,0.6768869161605835,0.726963996887207,0.11740637570619583,0.18283095955848694,-1.887967824935913,0.43679237365722656,-0.9442511200904846,0.2893064022064209,0.7570814490318298,0.5211508870124817,0.2444462925195694,0.7681732177734375,-2.9582924842834473,0.20664961636066437,-0.68610018491745,-1.1308976411819458,1.152422308921814,0.03298815339803696,0.20070859789848328,-1.0134831666946411,0.8159531354904175,1.456428050994873,-0.5457659363746643,1.5423719882965088,0.08228722959756851,2.048452138900757,-0.531166136264801,0.7413774132728577,-0.024737568572163582,0.018146337941288948,0.9895560145378113,0.8788427710533142,-1.3734428882598877,0.42476826906204224,2.820476531982422,-1.8807308673858643,0.7739293575286865,-1.382538080215454,0.15506421029567719,1.9444221258163452,0.11962047219276428,-0.27328047156333923,-0.8056574463844299,0.3042238652706146,-1.5021562576293945,-0.1571650207042694,-1.3928779363632202,-0.12399120628833771,0.1740737110376358,0.04678511619567871,0.027160577476024628,1.183180570602417,-2.8981540203094482,0.06601859629154205,-0.6398770809173584,-0.6398440599441528,3.71659779548645,-0.39752182364463806,-0.5547589659690857,-0.41378578543663025,-0.5319626331329346,-3.6117053031921387,0.6938562393188477,1.9327746629714966,-1.3906793594360352,-2.0248684883117676,-2.3226747512817383,-0.4648388922214508,1.341901183128357,1.5833126306533813,3.779866933822632,-1.446885585784912,1.5422371625900269,0.1901530623435974,-1.7735453844070435,0.8861203789710999,-0.6832221150398254,-0.18165868520736694,-0.13043467700481415,1.761876106262207,-0.36432257294654846,-0.330764502286911,0.303477019071579,0.6094510555267334,-0.7279207110404968,1.5539101362228394,0.25482818484306335,-1.2121511697769165,-2.049328327178955,1.2512210607528687,1.2638269662857056,-0.8139890432357788,1.7016888856887817,0.020840395241975784,-0.009199552237987518,1.5569778680801392]},"inputBias":{"rows":20,"columns":1,"weights":[-0.415703684091568,-0.7837381958961487,0.4988943636417389,-0.7447406649589539,-0.06320174783468246,0.4169631004333496,-1.430426001548767,-0.8177288770675659,-0.7864636778831482,0.11445443332195282,-0.26893988251686096,0.7039149403572083,-0.774723470211029,-0.8320221900939941,-1.0102993249893188,0.9127286076545715,0.4986363649368286,-0.4523390531539917,-1.4969837665557861,-0.4500318169593811]},"forgetMatrix":{"rows":20,"columns":47,"weights":[-0.32565703988075256,0.3166058659553528,0.25317561626434326,-1.2318223714828491,0.9388675093650818,0.026896335184574127,-0.22446925938129425,0.6857202649116516,-0.4724683463573456,0.06885818392038345,0.46178022027015686,-1.9042141437530518,0.5936594605445862,0.16667082905769348,-0.8129175305366516,-0.11660201847553253,-0.937177300453186,-0.5971059799194336,-0.06057460978627205,-0.4462171792984009,1.3169832229614258,-0.5841949582099915,0.8603588342666626,1.2924551963806152,0.8232842087745667,0.5907101631164551,0.38853558897972107,-2.387791395187378,-0.6051345467567444,0.6069931983947754,-0.721200704574585,-0.5209306478500366,0.46128425002098083,0.1437234878540039,1.423757553100586,-0.027272304520010948,0.20778709650039673,-2.1850037574768066,0.396404892206192,0.518034040927887,-1.1098315715789795,-0.4849602282047272,0.43690428137779236,-1.819929599761963,-1.1623426675796509,0.24064338207244873,0.43932291865348816,-0.44102418422698975,1.5354704856872559,1.3674296140670776,0.008960263803601265,-0.1921512633562088,1.1858991384506226,-0.7727183103561401,-0.35001978278160095,0.8340579867362976,0.19110175967216492,0.7034539580345154,-0.20860223472118378,0.16941192746162415,-0.2472793459892273,-0.3325147032737732,-0.25998079776763916,-0.1310439258813858,-0.2140384167432785,1.4806147813796997,-2.426034450531006,0.5211440324783325,0.26037535071372986,-0.5306302905082703,0.4547624886035919,1.3886997699737549,0.7048901319503784,-0.08727193623781204,-1.4339665174484253,-0.43542227149009705,-0.10001854598522186,-1.1745437383651733,-1.063828945159912,0.3475871980190277,-1.1321955919265747,1.3727397918701172,-1.4921363592147827,0.9833452701568604,0.9315357804298401,1.3221884965896606,-1.0178003311157227,-1.9654037952423096,0.8810281157493591,0.16592241823673248,-0.1516965925693512,-0.07884132862091064,-0.8718491196632385,1.3892531394958496,1.0622307062149048,-0.7428832650184631,0.037038207054138184,-0.34035560488700867,0.06163839250802994,0.5822345614433289,0.8286622762680054,-0.00003273591210017912,0.3759757876396179,0.07410580664873123,0.08640678972005844,-0.6161921620368958,0.4123939573764801,0.20849603414535522,0.10348537564277649,0.1258687973022461,0.02158895693719387,0.4157022535800934,-0.04106850177049637,0.8465791940689087,1.6832412481307983,-0.14303597807884216,0.4784952402114868,-0.5630068182945251,-0.8150939345359802,-0.44263848662376404,-0.8928882479667664,-0.19347625970840454,-0.16249600052833557,0.01608978398144245,0.14025035500526428,-0.5496228337287903,0.6487594842910767,-0.3807622790336609,0.5623423457145691,0.8159343600273132,0.06939265877008438,-0.7747068405151367,-0.2578737139701843,-0.5347036123275757,-0.28382164239883423,0.18213042616844177,-0.06636401265859604,0.14843682944774628,-0.6604899764060974,0.4596302807331085,-0.10292277485132217,0.5208389163017273,-0.4645760953426361,-1.1635870933532715,0.9915376901626587,-0.7558541893959045,0.15320995450019836,0.32242560386657715,1.264151692390442,1.3082623481750488,-1.064720869064331,0.18635554611682892,0.40366533398628235,-0.7026242017745972,0.32256171107292175,-0.3814462721347809,-0.9782976508140564,0.24707163870334625,-0.020942937582731247,1.6791632175445557,-0.7908092141151428,0.5730260610580444,0.008045706897974014,1.1275962591171265,-0.4492280185222626,0.33378660678863525,-0.5148956775665283,0.3017021417617798,0.45027413964271545,-1.016746163368225,-0.9798287153244019,-0.06242337077856064,-0.4847424030303955,-0.35077112913131714,-0.1482839435338974,0.6694315075874329,0.07026181370019913,0.2850608229637146,-1.4748018980026245,-0.41382911801338196,-0.6097702980041504,0.15351924300193787,-1.3822605609893799,-1.6135286092758179,1.2095354795455933,1.9374462366104126,0.23412008583545685,0.006278299726545811,0.38604405522346497,-0.1242218092083931,-0.48471906781196594,-0.8521429896354675,-0.5369993448257446,-1.2761715650558472,0.7331804037094116,0.3635878562927246,0.31891387701034546,0.09083399176597595,-0.7356622815132141,0.013161376118659973,-0.6214235424995422,0.3370249569416046,0.3500217795372009,-0.00885571539402008,-0.31697189807891846,-0.15696604549884796,-1.0727403163909912,0.9952642321586609,-0.8655020594596863,-0.25256896018981934,-0.18518130481243134,-0.033831436187028885,-1.3073796033859253,-0.7180126905441284,0.8293101191520691,0.6072187423706055,0.7660011649131775,1.390346884727478,-0.3124033212661743,0.8761231899261475,-0.5887151956558228,0.7705019116401672,-0.20625557005405426,1.3060327768325806,-1.636303424835205,1.0733153820037842,-0.5052109956741333,1.4735933542251587,0.04059608653187752,-0.5072903633117676,0.14426690340042114,-0.21447579562664032,0.013436018489301205,0.6318984031677246,-1.0603758096694946,1.2935954332351685,0.6904029250144958,0.13776765763759613,1.9948636293411255,-2.849544048309326,1.069875955581665,0.38996362686157227,-0.8014197945594788,0.15668681263923645,0.22137486934661865,0.6976842880249023,-0.1645885407924652,0.3161998689174652,1.8077853918075562,1.2527543306350708,-0.6909082531929016,0.26402992010116577,-0.5795087814331055,0.8808713555335999,0.46013516187667847,0.5286751389503479,0.9992172718048096,0.23946429789066315,-1.040399432182312,0.026686014607548714,0.07035339623689651,-0.7536442279815674,-0.5641762614250183,0.09948033094406128,-1.6158734560012817,-0.42141884565353394,0.032273486256599426,0.5690318942070007,-0.017641503363847733,-0.21596507728099823,-0.05413973703980446,-0.8532635569572449,0.5369150042533875,0.0335550419986248,0.11825009435415268,0.07555297017097473,0.019167395308613777,-1.707676887512207,2.2660443782806396,-0.4855020344257355,1.1932703256607056,-0.4826579988002777,-0.586341917514801,0.6986967921257019,0.3549540638923645,-0.76662677526474,0.7738255858421326,0.3910825252532959,-0.25869402289390564,-0.9810402989387512,0.0018600282492116094,0.43880602717399597,0.22468192875385284,-0.3913533687591553,-0.08520641177892685,-0.6301516890525818,-0.6221409440040588,0.2227928638458252,-0.6058893203735352,-0.27331429719924927,-0.37724554538726807,-0.8148226737976074,0.7164747714996338,0.8340511918067932,0.9698776602745056,0.5922145247459412,0.9344242811203003,0.6554840803146362,-1.1800469160079956,-0.7914928793907166,-0.6430736780166626,-0.2777326703071594,-1.2477742433547974,-0.845632791519165,0.1298810839653015,-0.36040782928466797,0.73853600025177,0.18667998909950256,-0.5521441102027893,1.099675178527832,-0.2351718544960022,0.10381964594125748,-0.9890367388725281,0.8508208990097046,0.8330273628234863,-0.23901629447937012,-0.5559821724891663,-0.4457736313343048,0.694502592086792,0.5116002559661865,0.7347080707550049,1.2652696371078491,-1.3197951316833496,-0.17081481218338013,-0.2854939103126526,0.5732859373092651,0.46186646819114685,0.4362573027610779,0.03081975132226944,0.666944146156311,-0.5006103515625,0.6333872675895691,0.3340459167957306,0.21514993906021118,-0.22296379506587982,-0.22969119250774384,-0.41394585371017456,-0.5658604502677917,0.4322907328605652,0.6690977811813354,-1.2682276964187622,1.1074298620224,0.3397008180618286,0.3258269727230072,-0.3910442888736725,0.4916633069515228,-0.9341263175010681,-0.3493785858154297,0.7501716017723083,-0.2398042380809784,0.273655503988266,0.638427197933197,0.17679789662361145,-0.3347620368003845,0.5523584485054016,0.594321608543396,-1.4588369131088257,-0.3630200922489166,0.3381164073944092,0.47574561834335327,-0.12804876267910004,0.2054058313369751,-1.225313663482666,-1.148727536201477,1.0665465593338013,-0.7385030388832092,-0.7958003878593445,0.20122456550598145,1.0674210786819458,-1.930465579032898,0.9884397387504578,-0.062106627970933914,-0.23530732095241547,1.111639380455017,1.56819486618042,2.0286900997161865,0.4821215569972992,-0.36306095123291016,0.6776617765426636,-0.3955939710140228,-1.0874758958816528,0.8311294913291931,-1.3521705865859985,0.8973665237426758,-0.9315804839134216,-0.06373719871044159,0.5624560713768005,-0.4680526852607727,1.5268492698669434,0.9362554550170898,-0.02753056213259697,0.3717474043369293,-0.08534059673547745,-0.8584387898445129,-0.9490245580673218,1.1366690397262573,-0.10526088625192642,-0.7599103450775146,0.6506811380386353,-0.2677210569381714,1.0505255460739136,0.43481162190437317,-0.8932444453239441,-0.08367203921079636,-1.1619789600372314,0.24633459746837616,-0.9928000569343567,-0.93894362449646,1.0402594804763794,-1.6835975646972656,-1.0120534896850586,0.23747219145298004,1.5564661026000977,0.9903656840324402,-1.0704306364059448,-0.7957927584648132,0.36993208527565,0.17616340517997742,0.5081092119216919,0.7044061422348022,0.3593212962150574,-0.972369372844696,-0.6458487510681152,-0.8692709803581238,-0.04797561466693878,-0.8223142623901367,-1.0403412580490112,-0.9677637815475464,0.5490712523460388,-0.14588889479637146,0.7414942979812622,0.23748928308486938,0.5755400657653809,0.15243275463581085,-0.013029397465288639,0.5943813920021057,-0.6404589414596558,-1.0545510053634644,-0.08267056941986084,1.5547410249710083,-0.3581206202507019,0.39122238755226135,-0.8457319140434265,0.04069827124476433,0.3258410394191742,-0.061174675822257996,-1.0989553928375244,0.2776549160480499,0.29115021228790283,0.9871627688407898,0.5046853423118591,0.6801199913024902,-1.297568917274475,0.09215382486581802,-0.1266479343175888,0.9449479579925537,0.04366603493690491,0.5670230984687805,0.003034543711692095,-0.8020745515823364,-0.5467492341995239,0.7125086784362793,-0.7650964856147766,0.8358898162841797,-0.4677910804748535,1.2175980806350708,-0.7976337671279907,-0.8194649815559387,-0.2686844766139984,1.0306220054626465,-0.5807364583015442,-1.011474847793579,-0.005446644965559244,1.0005697011947632,0.2524484694004059,-0.21234455704689026,1.1701183319091797,-0.23236727714538574,1.5263726711273193,-1.2764335870742798,0.9809905290603638,1.7827669382095337,-1.5755988359451294,0.3532383143901825,-0.3693391680717468,1.5197162628173828,0.2295384705066681,-0.01523295696824789,-0.44743257761001587,-1.724833607673645,-1.1099764108657837,-0.655175507068634,-0.6918624639511108,-1.2070471048355103,-0.2173309028148651,-1.201843023300171,-1.3191450834274292,-0.618894100189209,-1.1024835109710693,-0.6325600743293762,-0.7147802710533142,0.49821969866752625,-0.22404766082763672,0.45915526151657104,0.47256314754486084,-0.6748010516166687,1.0333895683288574,-0.42467403411865234,-0.5078191161155701,-0.3627442419528961,-0.12629380822181702,-0.44153016805648804,0.7912059426307678,0.5114705562591553,-0.9494550228118896,0.0971769317984581,1.4144089221954346,-0.8439328074455261,0.2422456592321396,-0.3039586544036865,0.21180571615695953,0.3988009989261627,0.12254482507705688,0.581071674823761,0.5157206654548645,0.336024671792984,-0.9034997224807739,0.6198567748069763,0.9853354692459106,-0.8739766478538513,0.3213271200656891,-0.838164746761322,-0.009485159069299698,0.3513849675655365,1.2702957391738892,-0.37955331802368164,-0.8531934022903442,-1.0999658107757568,-0.0941261351108551,-0.3190474212169647,-1.5066783428192139,-0.08198927342891693,-0.37171652913093567,-1.0384551286697388,-0.236489400267601,-0.5002963542938232,-0.2117624282836914,-0.8105812072753906,0.7000814080238342,0.24108187854290009,-0.03578637167811394,-0.27501246333122253,0.266149640083313,1.1432902812957764,-2.1436960697174072,-0.06579078733921051,0.9985650181770325,-1.3736058473587036,0.6585056185722351,0.4198516011238098,0.10810983926057816,0.19830141961574554,0.31231924891471863,1.1281015872955322,1.6551132202148438,0.0567178837954998,0.855739176273346,0.2240571230649948,0.05353626608848572,1.2181168794631958,-0.9483334422111511,0.17537930607795715,-0.6441252827644348,0.2748561501502991,0.06451991200447083,-1.002933382987976,1.3225860595703125,1.2369083166122437,-0.043361105024814606,0.3411926031112671,-0.0510496087372303,-1.0910186767578125,-0.3466957211494446,0.7729237675666809,-1.1891264915466309,-0.49218687415122986,1.122376799583435,0.029066571965813637,0.20517677068710327,0.13811710476875305,1.3679028749465942,-1.4317365884780884,-0.2731005847454071,-0.26354795694351196,0.895932137966156,-0.08082748204469681,1.3686842918395996,-1.2284042835235596,-2.5630264282226562,1.104390263557434,0.1245950311422348,-1.2784000635147095,1.0269700288772583,-1.611719012260437,0.6273014545440674,0.5056867003440857,0.20249271392822266,-0.2984267771244049,-0.19015450775623322,0.2659190595149994,0.6758770942687988,0.1941298097372055,-0.4646613299846649,0.6660675406455994,1.3459585905075073,0.2512095868587494,0.977199375629425,0.6387472152709961,-1.8250428438186646,1.3410943746566772,-0.9150376319885254,0.6933194398880005,1.0100847482681274,-1.0351228713989258,1.1302343606948853,-1.0398105382919312,0.9952287673950195,0.2643948495388031,0.13797205686569214,-0.5323554277420044,0.25102564692497253,-1.2720099687576294,0.3426878750324249,0.0016719542909413576,0.30107250809669495,0.05472952499985695,0.32222244143486023,-0.7870161533355713,-0.047050487250089645,-0.7101361155509949,0.3835282027721405,-1.4940274953842163,-0.42528608441352844,0.15093772113323212,0.08485434949398041,0.5409609079360962,0.7769812941551208,0.2979280352592468,-1.0739896297454834,1.0753146409988403,1.031702995300293,-0.2084081768989563,0.6973068118095398,1.3848886489868164,-0.8323408365249634,-0.6332575678825378,0.18604665994644165,1.2029024362564087,1.078392505645752,0.47035276889801025,0.33246397972106934,-0.570415198802948,-0.4842313528060913,-0.48843640089035034,-0.38252201676368713,0.013005402870476246,0.7576228380203247,-2.113223075866699,0.4942047595977783,0.47938862442970276,-0.023717742413282394,0.3058050274848938,0.8390184640884399,1.0550379753112793,-1.1783034801483154,-1.0674612522125244,-0.6297376155853271,-0.35527998208999634,-1.757360816001892,-1.2036551237106323,0.3232797682285309,-1.9361035823822021,0.7293086647987366,-1.3474138975143433,0.6370025873184204,-0.5570238828659058,0.6361744999885559,-2.4475417137145996,-2.714155673980713,0.36176756024360657,0.5911770462989807,-0.1112070381641388,0.10933587700128555,-1.0927417278289795,1.7956639528274536,-0.8939354419708252,0.9710054397583008,-0.262737512588501,0.276481956243515,-0.8539636135101318,-0.0340273343026638,-0.22975966334342957,-0.17801710963249207,-0.21981027722358704,0.5100315809249878,0.5684831738471985,-1.8493010997772217,1.0460435152053833,1.0566695928573608,0.6159477233886719,-0.4907399117946625,-0.03017725795507431,-2.0297584533691406,0.7932527661323547,-0.2544603645801544,1.003030776977539,1.2299327850341797,-0.1428150236606598,0.9939822554588318,-0.8343074321746826,1.319821834564209,0.7616459727287292,-0.48315006494522095,-1.5777033567428589,0.10399758815765381,-0.15726567804813385,0.4550168812274933,0.28557223081588745,0.17729032039642334,-0.632929801940918,0.039197418838739395,-1.0653808116912842,0.2616204619407654,-0.673562228679657,0.648564338684082,-1.784827709197998,-0.0761483833193779,-0.27058184146881104,-0.4924558699131012,-0.6221286654472351,0.8289940357208252,1.1903458833694458,-0.6670991778373718,-2.695481300354004,-2.2494492530822754,0.3950204849243164,-0.6393483877182007,-0.255159854888916,-0.22053344547748566,1.1046520471572876,-0.13899488747119904,0.48185965418815613,-0.655768096446991,-1.405147671699524,0.5679001808166504,-0.6725952625274658,-0.45941469073295593,-0.599605143070221,-0.5893236994743347,0.7888354659080505,0.8502159118652344,1.3920402526855469,0.7580877542495728,-0.037972867488861084,0.9235439300537109,-2.1546125411987305,-0.3834383487701416,0.20877814292907715,0.3692161440849304,0.5834433436393738,-0.5224554538726807,0.6284900903701782,1.7768845558166504,0.5672857165336609,-0.312222421169281,0.19970759749412537,0.19516517221927643,0.44800058007240295,-1.7596073150634766,-0.21376816928386688,-0.8488041758537292,0.6120119690895081,0.8602107167243958,-0.5024162530899048,-0.3044140934944153,0.7579333186149597,-0.36266523599624634,0.5114235877990723,0.48134052753448486,0.2558619976043701,0.09375891089439392,0.27985137701034546,-0.6193996071815491,-0.9220823049545288,0.634685218334198,1.4938052892684937,-0.5439956188201904,1.6930980682373047,1.8466424942016602,0.8688338994979858,-1.0917085409164429,1.9822359085083008,0.29413673281669617,0.3771129846572876,-0.5708571076393127,0.4762847125530243,-1.1784870624542236,-0.8953748941421509,1.4560561180114746,1.9661835432052612,0.20115715265274048,1.0470778942108154,-0.29017749428749084,-0.7029796838760376,0.7810722589492798,0.1790531724691391,-0.5677142143249512,-0.738448977470398,-0.36496347188949585,-0.5630196332931519,-0.7051299214363098,1.8850362300872803,-0.10112160444259644,-0.7238694429397583,0.5074381232261658,-0.3984355330467224,0.6994096040725708,-0.8490410447120667,-0.2707931399345398,0.30788931250572205,-0.010565707460045815,-0.09530087560415268,0.1751779168844223,-1.1764981746673584,1.2805901765823364,-0.633666455745697,-0.5247703194618225,1.4839739799499512,-0.11004096269607544,0.43933114409446716,0.28199562430381775,0.03974969685077667,-0.6740209460258484,-1.3704733848571777,-0.26600146293640137,-1.2927671670913696,-0.21777494251728058,-0.4685138165950775,0.1231803223490715,-0.47181761264801025,0.03447798267006874,-0.36827412247657776,-0.9411674737930298,-0.8436549305915833,0.014709843322634697,-0.8707639575004578,0.38626575469970703,-0.7500317096710205,-0.027350012212991714,0.47471967339515686,0.8748635053634644,0.6008446216583252,-0.6636990308761597,-0.08196921646595001,-0.48053187131881714,-1.2524183988571167,-1.213746428489685,-0.5402894616127014,0.06447909027338028,-0.7535809278488159,0.9807803630828857,-0.9976253509521484,0.6286718249320984,-0.044652923941612244,1.4736690521240234,-0.2845447361469269,-1.6024550199508667,1.4422309398651123,0.18977005779743195,0.5536231398582458,0.6664060950279236,-0.5218942165374756,0.8090697526931763,-1.6437463760375977,3.2185230255126953,-0.6407238841056824,-3.451871633529663,0.518430233001709,0.6634834408760071,-0.13413937389850616,-0.7473733425140381,-1.816014051437378,-0.42093732953071594,-0.15472526848316193,-2.0272700786590576,0.3575389087200165,0.27667081356048584,0.2935161292552948,-0.30638134479522705,-0.6011357307434082,-0.9242565631866455,0.07306099683046341,-0.11331401765346527,1.0192328691482544,1.529539704322815,0.02088373340666294,-1.1434533596038818,0.00996458064764738,0.2262391597032547,0.10873891413211823,0.6431187391281128,-1.242619514465332,-0.5185098648071289,-1.2349728345870972,-0.5618937611579895,0.28223684430122375,-0.6461424231529236,0.711938738822937,0.020625188946723938,-0.6928752660751343,0.3293391168117523,1.346205711364746,0.39981022477149963,-0.6425442099571228,0.3376140594482422,-0.23839132487773895,0.21633416414260864,-0.48414796590805054,0.8330968618392944,-0.11980655789375305]},"forgetHidden":{"rows":20,"columns":20,"weights":[-0.30438435077667236,-1.9817346334457397,0.2060488760471344,1.3356711864471436,-0.3113994300365448,0.2341577708721161,0.1867811381816864,1.0030781030654907,-1.4936336278915405,-1.6773439645767212,-2.5849380493164062,1.4753057956695557,-2.4326748847961426,1.1127616167068481,0.35377421975135803,-1.3966704607009888,-1.4770444631576538,1.161612868309021,-0.09564504772424698,0.3276100158691406,0.804400622844696,0.784319281578064,-0.3935527801513672,0.399563729763031,-0.239183709025383,-0.9974653720855713,-0.2592834234237671,-1.0955833196640015,0.39049720764160156,0.37093475461006165,0.896605908870697,0.8875241279602051,-1.1147186756134033,0.10893535614013672,0.07724877446889877,-0.9217007160186768,-0.6696833372116089,-0.5438365340232849,0.10055594146251678,0.47190767526626587,-0.544836163520813,-1.4826573133468628,-1.3949509859085083,-1.9883732795715332,-0.8792862892150879,-0.4934270679950714,-1.178087830543518,1.417681097984314,-0.9539744257926941,-2.7965641021728516,-1.4808536767959595,1.0887603759765625,1.4203550815582275,-1.4226282835006714,-1.0034972429275513,1.8586416244506836,-0.8103771805763245,-1.9868091344833374,-2.5121865272521973,0.16108278930187225,-1.578385829925537,1.8603185415267944,1.236833095550537,-0.38116317987442017,0.4196992814540863,1.6667234897613525,0.163199320435524,-0.9758508205413818,1.0871978998184204,-0.48971909284591675,1.0679303407669067,0.13662295043468475,-0.10909517854452133,-0.610780656337738,-1.3531115055084229,0.36926165223121643,0.49980005621910095,-0.3146681487560272,0.7215903401374817,1.3923933506011963,0.8892478346824646,0.8817406892776489,-1.2619578838348389,-0.31682321429252625,-1.6324436664581299,-1.8791240453720093,0.2658272385597229,-0.24851305782794952,0.7145643830299377,-0.8633043766021729,2.0257692337036133,1.442592740058899,-0.7173592448234558,-0.09925717860460281,0.7118292450904846,0.5542652010917664,-1.0246738195419312,-1.097436785697937,-0.6883150935173035,1.1119892597198486,-0.2598794102668762,0.6530479788780212,-0.5928701162338257,1.190616250038147,-0.576255738735199,-0.4724275767803192,0.8831314444541931,0.007273546420037746,1.4872803688049316,-0.7081527709960938,1.8667895793914795,-0.22427812218666077,0.45085200667381287,-0.005770034622400999,-0.2794741690158844,-2.7023065090179443,0.36009520292282104,-1.5466618537902832,0.9768317937850952,0.37542885541915894,-0.26630735397338867,1.1560041904449463,-0.17328977584838867,-0.49366557598114014,-0.06031646952033043,0.27477285265922546,0.26016145944595337,-1.129326343536377,1.2025548219680786,-0.039195477962493896,1.1872819662094116,1.9918640851974487,0.25322994589805603,-0.6481252908706665,-0.2900891900062561,-0.42929700016975403,2.4173922538757324,-0.7591459155082703,0.7284948825836182,1.4187577962875366,-0.3455278277397156,0.8035974502563477,-0.002929236041381955,-1.2853703498840332,0.05882026627659798,1.055686593055725,-0.32352980971336365,-0.22121234238147736,1.2699381113052368,0.4492957293987274,0.13571594655513763,0.24152225255966187,-0.23735831677913666,-1.204216480255127,-1.480605959892273,1.6275979280471802,-1.3812919855117798,-1.5339148044586182,-0.7104456424713135,-0.4838942587375641,1.2501220703125,0.019951552152633667,-0.09802598506212234,0.6665958166122437,-0.35956433415412903,-0.7047339081764221,0.19702208042144775,0.7255972623825073,-0.7594223618507385,0.06673961877822876,-1.1774529218673706,1.2219613790512085,-2.080749750137329,0.5600468516349792,1.1108654737472534,-0.0596461296081543,-1.158116340637207,1.414269208908081,-0.6328094005584717,-0.8676190972328186,-2.396589994430542,0.43730729818344116,-1.6428040266036987,-4.060670375823975,-1.9327473640441895,-1.6405608654022217,-0.3784702718257904,0.8092490434646606,0.9014679789543152,-0.6643125414848328,1.5384289026260376,0.8881450295448303,0.7961434125900269,-0.7736265063285828,1.5330166816711426,3.4830756187438965,0.4615732431411743,-0.2805829644203186,-0.6648885607719421,0.6696081757545471,0.0745072066783905,0.3754587769508362,0.040734972804784775,-0.618806779384613,1.1323127746582031,2.5086374282836914,-0.4793623685836792,-0.5664452910423279,-0.09047038108110428,1.6983225345611572,0.4583590626716614,-0.6892396211624146,1.6852943897247314,0.41586923599243164,-0.513512372970581,0.9063739776611328,-0.568170428276062,0.6871060132980347,0.007725860457867384,-1.0917894840240479,-2.7081260681152344,-0.7364144921302795,-0.722317636013031,-1.8094226121902466,-1.9993075132369995,-2.2276599407196045,-0.5704103708267212,0.3162296414375305,0.7830043435096741,-1.7448917627334595,-0.0014944116119295359,1.3333574533462524,1.9158941507339478,-0.4928536117076874,0.4228867292404175,0.9309610724449158,-0.2775653898715973,0.0564524345099926,-0.416402667760849,0.3171866834163666,-0.5678461194038391,0.6009314060211182,1.2285829782485962,0.39334410429000854,1.2981328964233398,-1.364729881286621,0.5139796733856201,-1.2641139030456543,-0.39529943466186523,0.06689011305570602,0.7715992331504822,0.7589630484580994,-0.5757070183753967,0.36097952723503113,0.35343989729881287,-0.45390477776527405,0.08912757784128189,-0.3111099898815155,-0.5439999103546143,1.0298100709915161,0.4141746163368225,-0.2965014576911926,0.14760425686836243,0.7748523950576782,1.1070706844329834,0.34649088978767395,-0.63051837682724,0.25730589032173157,-1.7131332159042358,0.2628072500228882,-1.2543385028839111,-0.13505616784095764,-0.055618226528167725,0.9489420652389526,0.6319010853767395,0.6797916293144226,-0.29388558864593506,1.0186023712158203,-0.0940946489572525,-0.771127462387085,-0.129184752702713,0.3893871009349823,-1.2336081266403198,-0.3628524839878082,-0.7538368105888367,-0.5462039709091187,-0.02671154774725437,-0.5532256960868835,-0.10792675614356995,0.514223039150238,0.15939085185527802,0.22682034969329834,-0.429605096578598,0.125911682844162,1.6049911975860596,-0.770992636680603,-0.5877802968025208,-0.5386438369750977,0.6638749241828918,0.9408743381500244,-0.4048035740852356,0.5925986766815186,0.6333759427070618,-0.43081289529800415,-0.7048506736755371,-0.2690003514289856,-0.12736128270626068,-1.3642860651016235,-0.67975914478302,0.6686233282089233,0.6683676242828369,0.06352253258228302,0.48156335949897766,0.14122089743614197,-0.9356852173805237,0.9280563592910767,-0.744040846824646,-0.2398025393486023,-0.6127417683601379,1.0420255661010742,2.071118116378784,2.0192501544952393,0.012008115649223328,-1.8680232763290405,1.1463944911956787,2.3950581550598145,-1.9825727939605713,0.3451116383075714,1.566376805305481,0.31097570061683655,2.476649522781372,4.692293167114258,1.1444963216781616,-0.26982346177101135,-0.8607000708580017,1.2891550064086914,-0.5111010074615479,-1.7842026948928833,4.137732982635498,1.9965413808822632,0.8294012546539307,-0.3142682909965515,1.1241600513458252,-0.667291522026062,-0.2891167402267456,-0.27423420548439026,0.6231895089149475,-1.410995602607727,-0.3755662441253662,-0.30861184000968933,0.7135214805603027,-0.2674656808376312,0.34025150537490845,-0.8788788318634033,-0.8309117555618286,-0.07057226449251175,1.2905209064483643,-0.4771745502948761,0.2731771171092987,0.08406306058168411,-1.6426572799682617,0.4307105541229248,0.6606073379516602,0.9739943146705627,-0.05053254961967468,-0.1141553744673729,0.4453694224357605,1.4409620761871338,1.1901568174362183,0.4840219020843506,0.3884040415287018,-0.3906265199184418,-1.057120442390442,-0.04775456339120865,0.417767196893692,-1.3194589614868164,0.4469837248325348,0.40144672989845276,0.3956744372844696,0.5544776320457458,1.1971025466918945,-1.6653742790222168,1.4582244157791138,0.8633362054824829,1.7048442363739014,0.6278387308120728,0.840144693851471,0.17817150056362152,0.03795180097222328,-0.9493680000305176,-1.433925747871399,-1.1446789503097534,-1.4064390659332275,1.1167227029800415,1.2911207675933838,-1.102354645729065,-1.3608306646347046,0.16357849538326263,0.6028299331665039,0.6605113744735718]},"forgetBias":{"rows":20,"columns":1,"weights":[0,0,0,0,0,0,0,0,0,0,0,0,0,0,0,0,0,0,0,0]},"outputMatrix":{"rows":20,"columns":47,"weights":[-0.3748243451118469,-1.1041793823242188,0.8405543565750122,-2.1564204692840576,2.0163414478302,0.7153255343437195,-0.4340612590312958,0.2805163860321045,0.6699357032775879,0.8311996459960938,-0.5467175245285034,0.4166025221347809,0.08797281980514526,-0.2900893986225128,-0.16012738645076752,-0.47394368052482605,0.08651402592658997,1.1376851797103882,0.8000611662864685,0.04398427531123161,-0.010776161216199398,-0.20814242959022522,